{"learner":{"attributes":{"scikit_learn":"{\"_estimator_type\": \"classifier\"}"},"feature_names":["Pregnancies","Glucose","BloodPressure","SkinThickness","Insulin","BMI","DiabetesPedigreeFunction","Age"],"feature_types":["int","int","int","int","int","float","float","int"],"gradient_booster":{"model":{"gbtree_model_param":{"num_parallel_tree":"1","num_trees":"100"},"iteration_indptr":[0,1,2,3,4,5,6,7,8,9,10,11,12,13,14,15,16,17,18,19,20,21,22,23,24,25,26,27,28,29,30,31,32,33,34,35,36,37,38,39,40,41,42,43,44,45,46,47,48,49,50,51,52,53,54,55,56,57,58,59,60,61,62,63,64,65,66,67,68,69,70,71,72,73,74,75,76,77,78,79,80,81,82,83,84,85,86,87,88,89,90,91,92,93,94,95,96,97,98,99,100],"tree_info":[0,0,0,0,0,0,0,0,0,0,0,0,0,0,0,0,0,0,0,0,0,0,0,0,0,0,0,0,0,0,0,0,0,0,0,0,0,0,0,0,0,0,0,0,0,0,0,0,0,0,0,0,0,0,0,0,0,0,0,0,0,0,0,0,0,0,0,0,0,0,0,0,0,0,0,0,0,0,0,0,0,0,0,0,0,0,0,0,0,0,0,0,0,0,0,0,0,0,0,0],"trees":[{"base_weights":[5.922889E-8,-7.559944E-1,1.1992426E0,-1.0879526E0,2.2902451E-1,-3.0260617E-1,1.4997089E0,-1.1993102E0,3.326162E-1,-5.3763276E-1,1.0417681E0,-2.761576E-1,3.326162E-1,-1.2786697E-1,1.6365179E0,-1.3293877E0,-4.329357E-1,-8.2698405E-1,7.921327E-2,-2.362847E-1,1.6058928E0,1.1769215E0,2.1398602E0,-1.359935E0,-1.2786697E-1,-3.3361486E-1,5.211224E-1,-3.096956E-1,-9.914745E-2,5.744424E-1,1.2951158E-1,1.4083256E0,-7.1152836E-2,1.9039096E-1,2.2676616E0,-1.2786697E-1,-4.1815826E-1,-9.405949E-2,3.326162E-1,8.296049E-2,5.116514E-1,7.3080766E-1,1.9039096E-1],"categories":[],"categories_nodes":[],"categories_segments":[],"categories_sizes":[],"default_left":[0,0,0,0,0,0,0,0,0,0,0,0,0,0,0,0,0,0,0,0,0,0,0,0,0,0,0,0,0,0,0,0,0,0,0,0,0,0,0,0,0,0,0],"id":0,"left_children":[1,3,5,7,9,11,13,15,-1,17,19,-1,-1,-1,21,23,25,27,-1,-1,29,31,33,35,-1,-1,37,-1,-1,-1,-1,39,-1,-1,41,-1,-1,-1,-1,-1,-1,-1,-1],"loss_changes":[6.477269E1,1.4577705E1,1.2919254E1,9.389492E0,7.9571323E0,5.762417E0,6.806843E0,2.5984688E0,0E0,1.7884282E0,7.563044E0,0E0,0E0,0E0,2.5374603E0,1.5800476E-1,4.533682E0,1.9052768E-1,0E0,0E0,9.8466396E-1,4.799494E0,3.3239365E-1,2.1066284E-1,0E0,0E0,1.9261829E0,0E0,0E0,0E0,0E0,3.521265E0,0E0,0E0,6.809654E-1,0E0,0E0,0E0,0E0,0E0,0E0,0E0,0E0],"parents":[2147483647,0,0,1,1,2,2,3,3,4,4,5,5,6,6,7,7,9,9,10,10,14,14,15,15,16,16,17,17,20,20,21,21,22,22,23,23,26,26,31,31,34,34],"right_children":[2,4,6,8,10,12,14,16,-1,18,20,-1,-1,-1,22,24,26,28,-1,-1,30,32,34,36,-1,-1,38,-1,-1,-1,-1,40,-1,-1,42,-1,-1,-1,-1,-1,-1,-1,-1],"split_conditions":[1.28E2,6.4E-1,2.4E1,4.55E1,1.14E2,1.55E2,1.7E1,3.2E1,3.326162E-1,1.01E2,2.8E1,-2.761576E-1,3.326162E-1,-1.2786697E-1,1.56E2,5E0,3.41E1,7.71E-1,7.921327E-2,-2.362847E-1,9.66E-1,1.53E2,1.05E2,3.7E1,-1.2786697E-1,-3.3361486E-1,9.9E1,-3.096956E-1,-9.914745E-2,5.744424E-1,1.2951158E-1,2.96E1,-7.1152836E-2,1.9039096E-1,1.057E0,-1.2786697E-1,-4.1815826E-1,-9.405949E-2,3.326162E-1,8.296049E-2,5.116514E-1,7.3080766E-1,1.9039096E-1],"split_indices":[1,6,7,5,4,1,3,7,0,1,7,0,0,0,1,0,5,6,0,0,6,1,4,4,0,0,4,0,0,0,0,5,0,0,6,0,0,0,0,0,0,0,0],"split_type":[0,0,0,0,0,0,0,0,0,0,0,0,0,0,0,0,0,0,0,0,0,0,0,0,0,0,0,0,0,0,0,0,0,0,0,0,0,0,0,0,0,0,0],"sum_hessian":[6.944409E1,4.2820156E1,2.6623932E1,3.1948719E1,1.0871439E1,4.437322E0,2.218661E1,3.0839388E1,1.1093305E0,5.7685184E0,5.1029205E0,3.3279915E0,1.1093305E0,1.3311965E0,2.0855413E1,2.5736467E1,5.1029205E0,4.215456E0,1.5530627E0,1.1093305E0,3.9935899E0,1.2646368E1,8.209045E0,2.4405272E1,1.3311965E0,2.8842592E0,2.218661E0,2.218661E0,1.9967949E0,2.662393E0,1.3311965E0,1.0871439E1,1.7749288E0,1.1093305E0,7.099715E0,1.3311965E0,2.3074074E1,1.1093305E0,1.1093305E0,2.662393E0,8.209045E0,5.9903846E0,1.1093305E0],"tree_param":{"num_deleted":"0","num_feature":"8","num_nodes":"43","size_leaf_vector":"1"}},{"base_weights":[-7.4961605E-3,-6.1684936E-1,8.223882E-1,-9.0709233E-1,2.216537E-1,3.634861E-1,1.3988804E0,-1.1755908E0,-4.5199832E-1,-9.548362E-1,1.2239478E0,-3.1137615E-1,6.645542E-1,1.555699E0,-1.6219089E-2,-3.8047925E-1,-4.7773745E-2,-8.9619774E-1,4.8383483E-1,-7.338073E-2,-3.1708226E-1,1.17300764E-1,4.3917575E-1,8.932312E-1,-2.5785694E-1,6.7799467E-1,5.3232086E-1,-1.055608E0,-3.0542517E-2,-2.6758267E-2,3.4699163E-1,3.629387E-1,1.411558E0,-6.347439E-2,3.8025895E-1,-3.4433123E-1,-8.015158E-2,-1.2874152E-1,1.1533381E-1,2.8443304E-1,-2.575733E-1,-1.14007555E-1,5.556771E-1],"categories":[],"categories_nodes":[],"categories_segments":[],"categories_sizes":[],"default_left":[0,0,0,0,0,0,0,0,0,0,0,0,0,0,0,0,0,0,0,0,0,0,0,0,0,0,0,0,0,0,0,0,0,0,0,0,0,0,0,0,0,0,0],"id":1,"left_children":[1,3,5,7,9,11,13,15,17,19,21,-1,23,25,-1,-1,-1,27,29,-1,-1,-1,-1,31,-1,33,-1,35,-1,37,-1,39,41,-1,-1,-1,-1,-1,-1,-1,-1,-1,-1],"loss_changes":[3.486321E1,9.873935E0,7.214567E0,3.1004105E0,1.4167709E1,8.117697E0,2.9521732E0,1.4998741E0,5.6935663E0,1.4996004E-1,7.0501137E-1,0E0,6.0309434E0,9.843044E-1,0E0,0E0,0E0,1.0235143E0,1.653167E0,0E0,0E0,0E0,0E0,3.2317944E0,0E0,2.3089552E0,0E0,2.2610283E-1,0E0,7.709193E-1,0E0,6.589011E0,5.869464E0,0E0,0E0,0E0,0E0,0E0,0E0,0E0,0E0,0E0,0E0],"parents":[2147483647,0,0,1,1,2,2,3,3,4,4,5,5,6,6,7,7,8,8,9,9,10,10,12,12,13,13,17,17,18,18,23,23,25,25,27,27,29,29,31,31,32,32],"right_children":[2,4,6,8,10,12,14,16,18,20,22,-1,24,26,-1,-1,-1,28,30,-1,-1,-1,-1,32,-1,34,-1,36,-1,38,-1,40,42,-1,-1,-1,-1,-1,-1,-1,-1,-1,-1],"split_conditions":[1.28E2,1.5E2,1.55E2,4.93E-1,2.9E1,2.2E1,4.8E2,8.5E1,1.03E2,5.8E1,1.04E2,-3.1137615E-1,1.53E2,7E1,-1.6219089E-2,-3.8047925E-1,-4.7773745E-2,9E1,3.6E1,-7.338073E-2,-3.1708226E-1,1.17300764E-1,4.3917575E-1,7.8E1,-2.5785694E-1,2.7E1,5.3232086E-1,9.62E-1,-3.0542517E-2,2.5E1,3.4699163E-1,7.4E1,2.8E1,-6.347439E-2,3.8025895E-1,-3.4433123E-1,-8.015158E-2,-1.2874152E-1,1.1533381E-1,2.8443304E-1,-2.575733E-1,-1.14007555E-1,5.556771E-1],"split_indices":[1,4,1,6,7,3,4,2,1,2,1,0,1,2,0,0,0,4,3,0,0,0,0,2,0,3,0,6,0,7,0,2,7,0,0,0,0,0,0,0,0,0,0],"split_type":[0,0,0,0,0,0,0,0,0,0,0,0,0,0,0,0,0,0,0,0,0,0,0,0,0,0,0,0,0,0,0,0,0,0,0,0,0,0,0,0,0,0,0],"sum_hessian":[6.693834E1,3.8745594E1,2.8192745E1,2.872188E1,1.0023713E1,1.660515E1,1.1587595E1,1.7068531E1,1.165335E1,4.632936E0,5.390777E0,2.5036662E0,1.4101483E1,1.0394932E1,1.1926637E0,1.5415072E1,1.6534586E0,7.9311366E0,3.7222135E0,1.0091254E0,3.6238108E0,1.7938077E0,3.5969696E0,1.2621619E1,1.4798648E0,2.8913593E0,7.5035725E0,6.3317194E0,1.5994169E0,2.6621373E0,1.0600761E0,7.0792027E0,5.542416E0,1.407948E0,1.4834113E0,5.26099E0,1.0707294E0,1.3234622E0,1.338675E0,4.937637E0,2.1415658E0,1.1213688E0,4.421047E0],"tree_param":{"num_deleted":"0","num_feature":"8","num_nodes":"43","size_leaf_vector":"1"}},{"base_weights":[-1.5991377E-2,-5.1848197E-1,6.0973924E-1,-7.9861426E-1,1.4925055E-1,3.2424152E-1,1.2062383E0,-9.1536844E-1,2.5130054E-1,-2.1002178E-1,4.6933803E-1,-7.7688444E-1,5.551549E-1,3.9664367E-1,8.1030786E-2,-3.4938213E-1,-5.233007E-1,-2.4678305E-1,7.772967E-1,-6.631996E-2,-2.6736635E-1,3.2717583E-1,3.4225565E-1,-7.890285E-1,3.0908886E-1,-5.8836497E-2,1.1282773E0,4.9201483E-1,-2.0365681E-1,1.0609448E-2,-2.8712666E-1,2.6251298E-1,-1.1357585E-1,4.2503542E-1,3.4353197E-2,2.814937E-1,3.1080319E-2],"categories":[],"categories_nodes":[],"categories_segments":[],"categories_sizes":[],"default_left":[0,0,0,0,0,0,0,0,0,0,0,0,0,0,0,0,0,0,0,0,0,0,0,0,0,0,0,0,0,0,0,0,0,0,0,0,0],"id":2,"left_children":[1,3,5,7,9,11,13,15,-1,-1,17,19,21,-1,-1,-1,23,-1,25,-1,-1,27,-1,29,31,-1,33,35,-1,-1,-1,-1,-1,-1,-1,-1,-1],"loss_changes":[2.0128138E1,6.757184E0,4.4663916E0,5.5727882E0,3.4088323E0,5.6839247E0,6.0480785E-1,1.7318039E0,0E0,0E0,4.151678E0,5.7050467E-2,1.9848499E0,0E0,0E0,0E0,2.7051613E0,0E0,2.8324142E0,0E0,0E0,2.6746092E0,0E0,1.2414694E0,1.6588998E0,0E0,1.5240169E0,2.105513E0,0E0,0E0,0E0,0E0,0E0,0E0,0E0,0E0,0E0],"parents":[2147483647,0,0,1,1,2,2,3,3,4,4,5,5,6,6,7,7,10,10,11,11,12,12,16,16,18,18,21,21,23,23,24,24,26,26,27,27],"right_children":[2,4,6,8,10,12,14,16,-1,-1,18,20,22,-1,-1,-1,24,-1,26,-1,-1,28,-1,30,32,-1,34,36,-1,-1,-1,-1,-1,-1,-1,-1,-1],"split_conditions":[1.28E2,6.4E-1,1.66E2,4.55E1,2.5E1,2.4E1,1.144E0,3.36E1,2.5130054E-1,-2.1002178E-1,2.6E1,6.4E1,7.19E-1,3.9664367E-1,8.1030786E-2,-3.4938213E-1,3.2E1,-2.4678305E-1,8.2E1,-6.631996E-2,-2.6736635E-1,6.14E-1,3.4225565E-1,6.5E1,3.51E1,-5.8836497E-2,7.8E1,7.2E1,-2.0365681E-1,1.0609448E-2,-2.8712666E-1,2.6251298E-1,-1.1357585E-1,4.2503542E-1,3.4353197E-2,2.814937E-1,3.1080319E-2],"split_indices":[1,6,1,5,7,7,6,5,0,0,5,2,6,0,0,0,7,0,4,0,0,6,0,4,5,0,2,2,0,0,0,0,0,0,0,0,0],"split_type":[0,0,0,0,0,0,0,0,0,0,0,0,0,0,0,0,0,0,0,0,0,0,0,0,0,0,0,0,0,0,0,0,0,0,0,0,0],"sum_hessian":[6.2010506E1,3.4487137E1,2.7523369E1,2.4156717E1,1.0330419E1,1.9658127E1,7.8652415E0,2.2959091E1,1.197627E0,2.5026731E0,7.8277454E0,2.997925E0,1.6660202E1,6.6317863E0,1.2334552E0,1.2831591E1,1.01275E1,1.1850508E0,6.642695E0,1.0119696E0,1.9859555E0,1.3114191E1,3.546011E0,7.716284E0,2.4112158E0,1.8773162E0,4.7653785E0,1.1706937E1,1.4072542E0,1.4403658E0,6.275918E0,1.1732053E0,1.2380105E0,3.4001782E0,1.3652003E0,4.788766E0,6.918171E0],"tree_param":{"num_deleted":"0","num_feature":"8","num_nodes":"37","size_leaf_vector":"1"}},{"base_weights":[-1.6658816E-2,-4.4049278E-1,4.6786812E-1,-6.8306315E-1,1.6971882E-1,-1.9836995E-1,6.55572E-1,-9.702694E-1,-2.803586E-1,-2.3056704E-1,8.0674803E-1,-7.355142E-1,5.874262E-1,1.5143667E-1,8.622762E-1,-3.2464486E-1,-2.8986854E-2,-6.447847E-1,5.136153E-1,2.3977388E-1,3.2710817E-1,1.0712493E-2,-3.0886346E-1,2.2768302E-1,3.8261615E-2,-3.7013605E-1,6.026565E-1,1.0769444E0,-2.8903645E-1,5.563001E-2,-8.142903E-1,-7.780974E-2,2.755902E-1,-1.06220834E-1,1.9549242E-1,5.8714744E-2,-2.3295279E-1,-3.5025265E-2,2.6317596E-1,1.2814763E0,5.4998595E-1,-1.7845513E-2,-1.15586065E-1,-4.7497462E-2,-2.7254322E-1,4.1628137E-1,1.4643487E-1,-1.0868818E-1,2.8196397E-1],"categories":[],"categories_nodes":[],"categories_segments":[],"categories_sizes":[],"default_left":[0,0,0,0,0,0,0,0,0,0,0,0,0,0,0,0,0,0,0,0,0,0,0,0,0,0,0,0,0,0,0,0,0,0,0,0,0,0,0,0,0,0,0,0,0,0,0,0,0],"id":3,"left_children":[1,3,5,7,9,11,13,15,17,-1,19,21,23,25,27,-1,-1,29,31,33,-1,-1,-1,-1,-1,35,37,39,41,-1,43,-1,-1,-1,-1,-1,-1,-1,-1,45,47,-1,-1,-1,-1,-1,-1,-1,-1],"loss_changes":[1.2078901E1,4.756924E0,3.5641823E0,2.3458662E0,6.429464E0,3.303868E0,2.126235E0,1.1470985E0,3.4644842E0,0E0,7.4790144E-1,1.0538771E0,1.6496289E-1,1.9906557E0,4.0547066E0,0E0,0E0,1.2579002E0,1.4790773E0,1.0561581E0,0E0,0E0,0E0,0E0,0E0,1.0955074E0,9.730903E-1,6.9393826E-1,4.70919E-2,0E0,2.711954E-1,0E0,0E0,0E0,0E0,0E0,0E0,0E0,0E0,4.6548843E-2,2.254336E0,0E0,0E0,0E0,0E0,0E0,0E0,0E0,0E0],"parents":[2147483647,0,0,1,1,2,2,3,3,4,4,5,5,6,6,7,7,8,8,10,10,11,11,12,12,13,13,14,14,17,17,18,18,19,19,25,25,26,26,27,27,28,28,30,30,39,39,40,40],"right_children":[2,4,6,8,10,12,14,16,18,-1,20,22,24,26,28,-1,-1,30,32,34,-1,-1,-1,-1,-1,36,38,40,42,-1,44,-1,-1,-1,-1,-1,-1,-1,-1,46,48,-1,-1,-1,-1,-1,-1,-1,-1],"split_conditions":[1.28E2,1.5E2,2.96E1,4.93E-1,2.9E1,1.46E2,3.42E-1,8.5E1,1.07E2,-2.3056704E-1,3.41E1,1.16E2,4.39E-1,3.41E1,3.3E2,-3.2464486E-1,-2.8986854E-2,5.15E-1,2.5E1,1.04E2,3.2710817E-1,1.0712493E-2,-3.0886346E-1,2.2768302E-1,3.8261615E-2,3.19E1,3E1,2.04E2,4.85E2,5.563001E-2,8.2E1,-7.780974E-2,2.755902E-1,-1.06220834E-1,1.9549242E-1,5.8714744E-2,-2.3295279E-1,-3.5025265E-2,2.6317596E-1,4.06E1,3E0,-1.7845513E-2,-1.15586065E-1,-4.7497462E-2,-2.7254322E-1,4.1628137E-1,1.4643487E-1,-1.0868818E-1,2.8196397E-1],"split_indices":[1,4,5,6,7,1,6,2,1,0,5,4,6,5,4,0,0,6,7,1,0,0,0,0,0,5,7,4,4,0,1,0,0,0,0,0,0,0,0,5,0,0,0,0,0,0,0,0,0],"split_type":[0,0,0,0,0,0,0,0,0,0,0,0,0,0,0,0,0,0,0,0,0,0,0,0,0,0,0,0,0,0,0,0,0,0,0,0,0,0,0,0,0,0,0,0,0,0,0,0,0],"sum_hessian":[5.6814903E1,3.0353998E1,2.6460905E1,2.1634499E1,8.7195E0,5.803847E0,2.0657057E1,1.1805506E1,9.828993E0,3.4425395E0,5.276961E0,3.485359E0,2.3184876E0,6.5106697E0,1.4146387E1,1.0253741E1,1.5517641E0,6.865636E0,2.9633565E0,2.3748293E0,2.9021313E0,1.2045256E0,2.2808335E0,1.215049E0,1.1034387E0,3.1032586E0,3.4074113E0,1.1977682E1,2.1687055E0,1.1481531E0,5.717483E0,1.1425024E0,1.820854E0,1.0300307E0,1.3447986E0,1.5137839E0,1.5894748E0,1.100106E0,2.3073053E0,7.5971236E0,4.380558E0,1.1186994E0,1.0500062E0,1.0544857E0,4.6629972E0,6.040112E0,1.5570116E0,1.3328122E0,3.047746E0],"tree_param":{"num_deleted":"0","num_feature":"8","num_nodes":"49","size_leaf_vector":"1"}},{"base_weights":[-1.2345578E-2,-2.0676443E-1,7.3969173E-1,-3.9207688E-1,6.156154E-1,8.897884E-1,1.2053812E-1,-7.036705E-1,-1.12277195E-1,-9.897412E-2,9.121804E-1,1.1149728E0,1.8890003E-2,-4.144139E-2,9.720739E-2,-8.0017143E-1,7.92124E-2,1.9954568E-1,-5.082529E-1,3.4520775E-1,3.590101E-1,9.504075E-2,3.5957423E-1,-8.820587E-1,4.235407E-2,-3.0369058E-1,6.28E-1,-3.0878156E-1,2.5012973E-1,1.7850879E-1,-3.258448E-2,-9.0301976E-2,-2.784789E-1,-2.3066573E-1,9.100708E-2,-5.5084422E-2,3.059408E-1,-7.445978E-2,2.1176778E-1],"categories":[],"categories_nodes":[],"categories_segments":[],"categories_sizes":[],"default_left":[0,0,0,0,0,0,0,0,0,0,0,0,0,0,0,0,0,0,0,0,0,0,0,0,0,0,0,0,0,0,0,0,0,0,0,0,0,0,0],"id":4,"left_children":[1,3,5,7,9,11,13,15,17,-1,19,21,-1,-1,-1,23,-1,25,27,29,-1,-1,-1,31,-1,33,35,-1,37,-1,-1,-1,-1,-1,-1,-1,-1,-1,-1],"loss_changes":[7.866874E0,6.749195E0,9.202242E-1,3.0126162E0,2.6121104E0,1.5574737E0,2.1919811E-1,1.7602959E0,2.5552914E0,0E0,6.418581E-1,7.481003E-2,0E0,0E0,0E0,1.3063459E0,0E0,2.74278E0,3.8283658E0,4.7171658E-1,0E0,0E0,0E0,1.0295582E-1,0E0,1.9607058E0,2.3238792E0,0E0,1.1937896E0,0E0,0E0,0E0,0E0,0E0,0E0,0E0,0E0,0E0,0E0],"parents":[2147483647,0,0,1,1,2,2,3,3,4,4,5,5,6,6,7,7,8,8,10,10,11,11,15,15,17,17,18,18,19,19,23,23,25,25,26,26,28,28],"right_children":[2,4,6,8,10,12,14,16,18,-1,20,22,-1,-1,-1,24,-1,26,28,30,-1,-1,-1,32,-1,34,36,-1,38,-1,-1,-1,-1,-1,-1,-1,-1,-1,-1],"split_conditions":[1.55E2,4.3E1,3.3E2,2.9E1,1.14E2,4.8E1,2.5E1,8.39E-1,3.67E1,-9.897412E-2,3.41E1,2.79E-1,1.8890003E-2,-4.144139E-2,9.720739E-2,3.61E1,7.92124E-2,3.33E1,4.18E1,2.7E1,3.590101E-1,9.504075E-2,3.5957423E-1,2.31E1,4.235407E-2,1.27E2,4.97E-1,-3.0878156E-1,1.71E2,1.7850879E-1,-3.258448E-2,-9.0301976E-2,-2.784789E-1,-2.3066573E-1,9.100708E-2,-5.5084422E-2,3.059408E-1,-7.445978E-2,2.1176778E-1],"split_indices":[1,7,4,3,4,7,7,6,5,0,5,6,0,0,0,5,0,5,5,3,0,0,0,5,0,1,6,0,4,0,0,0,0,0,0,0,0,0,0],"split_type":[0,0,0,0,0,0,0,0,0,0,0,0,0,0,0,0,0,0,0,0,0,0,0,0,0,0,0,0,0,0,0,0,0,0,0,0,0,0,0],"sum_hessian":[5.1759186E1,4.1703053E1,1.0056132E1,3.4460968E1,7.242084E0,7.7421565E0,2.3139758E0,1.5587423E1,1.8873545E1,1.7022864E0,5.539798E0,5.8110228E0,1.9311336E0,1.1602224E0,1.1537534E0,1.4331414E1,1.2560086E0,1.0836268E1,8.037276E0,2.5906398E0,2.9491577E0,1.0050806E0,4.805942E0,1.3242454E1,1.0889609E0,5.1171603E0,5.719108E0,4.5524735E0,3.4848025E0,1.4701813E0,1.1204586E0,1.5289912E0,1.1713463E1,2.7461333E0,2.371027E0,2.034996E0,3.6841123E0,1.8822161E0,1.6025864E0],"tree_param":{"num_deleted":"0","num_feature":"8","num_nodes":"39","size_leaf_vector":"1"}},{"base_weights":[-3.3180002E-4,-5.8503246E-1,1.9028983E-1,-7.1956044E-1,6.0243186E-2,4.5821186E-2,7.8584224E-1,-8.302514E-1,-2.7931148E-2,-3.141918E-1,2.9806012E-1,2.719018E-1,1.2664573E-2,-2.9810068E-1,-4.5372915E-2,3.8654912E-1,-5.482913E-1,-1.8613905E-1,4.1749862E-1,-8.30761E-2,2.5139114E-1,-2.7541637E-1,-2.027739E-1,5.5717593E-1,-2.3556443E-1,6.2041286E-2,-2.1147712E-1,8.102588E-2,3.1844324E-1,-1.5024562E-1,6.066545E-2],"categories":[],"categories_nodes":[],"categories_segments":[],"categories_sizes":[],"default_left":[0,0,0,0,0,0,0,0,0,0,0,0,0,0,0,0,0,0,0,0,0,0,0,0,0,0,0,0,0,0,0],"id":5,"left_children":[1,3,5,7,-1,9,11,13,-1,15,17,-1,-1,-1,-1,19,21,-1,23,-1,-1,-1,25,27,29,-1,-1,-1,-1,-1,-1],"loss_changes":[5.54428E0,1.4374189E0,3.1917386E0,6.6193295E-1,0E0,2.9317307E0,6.124368E-1,8.4098196E-1,0E0,2.4040008E0,2.3314662E0,0E0,0E0,0E0,0E0,1.4099264E0,1.1463697E0,0E0,1.7106519E0,0E0,0E0,0E0,1.5186741E0,1.8214417E0,5.371561E-1,0E0,0E0,0E0,0E0,0E0,0E0],"parents":[2147483647,0,0,1,1,2,2,3,3,5,5,6,6,7,7,9,9,10,10,15,15,16,16,18,18,22,22,23,23,24,24],"right_children":[2,4,6,8,-1,10,12,14,-1,16,18,-1,-1,-1,-1,20,22,-1,24,-1,-1,-1,26,28,30,-1,-1,-1,-1,-1,-1],"split_conditions":[1.02E2,1.65E2,1.66E2,8.2E1,6.0243186E-2,2.8E1,1.89E2,9E1,-2.7931148E-2,1.1E2,2.61E1,2.719018E-1,1.2664573E-2,-2.9810068E-1,-4.5372915E-2,4.97E-1,1.28E2,-1.8613905E-1,1.53E2,-8.30761E-2,2.5139114E-1,-2.7541637E-1,1.96E2,4.3E1,7E0,6.2041286E-2,-2.1147712E-1,8.102588E-2,3.1844324E-1,-1.5024562E-1,6.066545E-2],"split_indices":[1,4,1,2,0,7,1,4,0,1,5,0,0,0,0,6,1,0,1,0,0,0,4,7,0,0,0,0,0,0,0],"split_type":[0,0,0,0,0,0,0,0,0,0,0,0,0,0,0,0,0,0,0,0,0,0,0,0,0,0,0,0,0,0,0],"sum_hessian":[4.7745026E1,1.1229941E1,3.6515083E1,9.66051E0,1.5694307E0,3.0253222E1,6.2618637E0,7.9334126E0,1.7270977E0,1.2362701E1,1.789052E1,5.200386E0,1.0614773E0,6.020937E0,1.912476E0,2.9327497E0,9.429952E0,1.5759647E0,1.6314556E1,1.3439943E0,1.5887556E0,3.754716E0,5.6752353E0,1.356096E1,2.7535954E0,3.4496734E0,2.225562E0,9.620022E0,3.9409382E0,1.6250072E0,1.1285882E0],"tree_param":{"num_deleted":"0","num_feature":"8","num_nodes":"31","size_leaf_vector":"1"}},{"base_weights":[-7.7877725E-3,-1.5331557E-1,5.475732E-1,-8.123869E-1,-2.4363719E-2,7.3465633E-1,1.3029678E-1,-3.4224484E-2,-2.82972E-1,-1.7624515E-1,5.8665985E-1,-2.653784E-3,8.9038986E-1,1.3893452E-1,-8.616014E-2,-4.82749E-2,-7.227942E-1,-3.8029864E-2,7.687104E-1,2.9167652E-1,8.099178E-2,-5.810608E-1,1.5734893E-1,-1.7729646E-2,-2.674324E-1,2.674365E-1,4.3767095E-2,-2.63848E-1,1.777796E-2,-1.5231225E-1,7.8878835E-2],"categories":[],"categories_nodes":[],"categories_segments":[],"categories_sizes":[],"default_left":[0,0,0,0,0,0,0,0,0,0,0,0,0,0,0,0,0,0,0,0,0,0,0,0,0,0,0,0,0,0,0],"id":6,"left_children":[1,3,5,7,9,11,13,-1,-1,15,17,-1,19,-1,-1,21,23,-1,25,-1,-1,27,29,-1,-1,-1,-1,-1,-1,-1,-1],"loss_changes":[3.7520423E0,3.1029682E0,6.5700793E-1,4.389789E-1,3.0509717E0,7.5377154E-1,7.1665984E-1,0E0,0E0,1.7981045E0,9.487052E-1,0E0,8.54063E-3,0E0,0E0,2.5352247E0,4.9583268E-1,0E0,2.7995825E-1,0E0,0E0,1.2798598E0,1.318896E0,0E0,0E0,0E0,0E0,0E0,0E0,0E0,0E0],"parents":[2147483647,0,0,1,1,2,2,3,3,4,4,5,5,6,6,9,9,10,10,12,12,15,15,16,16,18,18,21,21,22,22],"right_children":[2,4,6,8,10,12,14,-1,-1,16,18,-1,20,-1,-1,22,24,-1,26,-1,-1,28,30,-1,-1,-1,-1,-1,-1,-1,-1],"split_conditions":[1.55E2,2.64E1,2.5E2,5.7E1,4.3E1,9.9E1,6.13E-1,-3.4224484E-2,-2.82972E-1,3.7E1,9.9E1,-2.653784E-3,4.8E1,1.3893452E-1,-8.616014E-2,2.4E1,3.05E1,-3.8029864E-2,5.4E1,2.9167652E-1,8.099178E-2,3.5E1,1.98E-1,-1.7729646E-2,-2.674324E-1,2.674365E-1,4.3767095E-2,-2.63848E-1,1.777796E-2,-1.5231225E-1,7.8878835E-2],"split_indices":[1,5,4,4,7,4,6,0,0,7,1,0,7,0,0,7,5,0,7,0,0,3,6,0,0,0,0,0,0,0,0],"split_type":[0,0,0,0,0,0,0,0,0,0,0,0,0,0,0,0,0,0,0,0,0,0,0,0,0,0,0,0,0,0,0],"sum_hessian":[4.438567E1,3.574335E1,8.642319E0,4.981753E0,3.0761599E1,5.441886E0,3.2004325E0,1.0815935E0,3.9001591E0,2.5207386E1,5.5542135E0,1.1057966E0,4.336089E0,1.7200149E0,1.4804175E0,2.1306871E1,3.9005134E0,1.1909097E0,4.3633037E0,3.3296392E0,1.0064502E0,5.424852E0,1.588202E1,1.0639322E0,2.8365812E0,3.284649E0,1.0786549E0,3.4454985E0,1.9793534E0,1.6540927E0,1.4227927E1],"tree_param":{"num_deleted":"0","num_feature":"8","num_nodes":"31","size_leaf_vector":"1"}},{"base_weights":[-1.35304155E-2,-4.7946703E-1,1.3014685E-1,-6.174287E-1,3.8146053E-2,2.2287171E-2,6.025971E-1,-2.54605E-1,-7.158377E-3,-8.328385E-2,5.128672E-1,7.1650577E-1,1.6934053E-3,-8.5990995E-2,9.1920376E-2,2.0017815E-1,-2.651991E-1,-1.827353E-2,2.6963854E-1,7.9254436E-1,5.969337E-2,-1.936695E-1,3.8967764E-1,1.2823917E-1,-3.4863636E-1,6.5953486E-2,2.746051E-1,2.1732703E-1,-9.469829E-3,-1.7626968E-1,-2.2857146E-2],"categories":[],"categories_nodes":[],"categories_segments":[],"categories_sizes":[],"default_left":[0,0,0,0,0,0,0,0,0,0,0,0,0,0,0,0,0,0,0,0,0,0,0,0,0,0,0,0,0,0,0],"id":7,"left_children":[1,3,5,7,-1,9,11,-1,13,15,17,19,-1,-1,-1,21,23,-1,-1,25,-1,-1,27,-1,29,-1,-1,-1,-1,-1,-1],"loss_changes":[2.9315028E0,9.417312E-1,1.6958869E0,1.2039709E0,0E0,1.5108476E0,4.1728258E-1,0E0,3.8268575E-1,1.3003466E0,1.1972871E0,4.6749115E-2,0E0,0E0,0E0,1.8582088E0,1.0253499E0,0E0,0E0,9.377289E-2,0E0,0E0,1.2656308E0,0E0,8.7200284E-1,0E0,0E0,0E0,0E0,0E0,0E0],"parents":[2147483647,0,0,1,1,2,2,3,3,5,5,6,6,8,8,9,9,10,10,11,11,15,15,16,16,19,19,22,22,24,24],"right_children":[2,4,6,8,-1,10,12,-1,14,16,18,20,-1,-1,-1,22,24,-1,-1,26,-1,-1,28,-1,30,-1,-1,-1,-1,-1,-1],"split_conditions":[1.02E2,7.71E-1,1.66E2,3.66E1,3.8146053E-2,8E0,1.89E2,-2.54605E-1,7.4E1,1.32E2,1.42E2,4.2E1,1.6934053E-3,-8.5990995E-2,9.1920376E-2,6.2E1,5.6E1,-1.827353E-2,2.6963854E-1,3.41E1,5.969337E-2,-1.936695E-1,7.2E1,1.2823917E-1,2.9E1,6.5953486E-2,2.746051E-1,2.1732703E-1,-9.469829E-3,-1.7626968E-1,-2.2857146E-2],"split_indices":[1,6,1,5,0,0,1,0,2,4,4,7,0,0,0,2,2,0,0,5,0,0,2,0,7,0,0,0,0,0,0],"split_type":[0,0,0,0,0,0,0,0,0,0,0,0,0,0,0,0,0,0,0,0,0,0,0,0,0,0,0,0,0,0,0],"sum_hessian":[4.1857914E1,9.3144865E0,3.2543427E1,7.574115E0,1.7403723E0,2.7347261E1,5.1961646E0,5.2094054E0,2.3647091E0,2.3187607E1,4.1596537E0,4.1953483E0,1.0008165E0,1.2957017E0,1.0690073E0,9.024756E0,1.4162851E1,2.0113876E0,2.148266E0,3.1945755E0,1.0007726E0,1.2114275E0,7.813329E0,1.079349E0,1.3083502E1,1.0567335E0,2.1378422E0,3.9526157E0,3.8607132E0,6.354291E0,6.729211E0],"tree_param":{"num_deleted":"0","num_feature":"8","num_nodes":"31","size_leaf_vector":"1"}},{"base_weights":[-2.9342384E-3,-4.2801178E-1,1.315287E-1,1.2606688E-1,-6.2632173E-1,-3.5279375E-1,2.786492E-1,-8.6979157E-1,4.3850996E-2,-2.410224E-1,8.6690955E-2,1.3848118E-1,6.4898384E-1,-2.9299027E-1,-6.148094E-2,-1.2992173E-1,1.4034386E-1,-1.1066263E-1,4.1802728E-1,2.1662073E-1,-1.7927378E-1,2.8459653E-1,1.4936893E-1,1.9545297E-1,-9.744534E-3,-3.6030747E-2,4.4854724E-1,1.2663078E-1,-7.3234E-2,-7.8262836E-2,1.3690956E-1,-1.1576952E-2,1.9133401E-1],"categories":[],"categories_nodes":[],"categories_segments":[],"categories_sizes":[],"default_left":[0,0,0,0,0,0,0,0,0,0,0,0,0,0,0,0,0,0,0,0,0,0,0,0,0,0,0,0,0,0,0,0,0],"id":8,"left_children":[1,3,5,-1,7,9,11,13,15,-1,17,19,21,-1,-1,-1,-1,-1,23,25,-1,-1,27,-1,-1,29,31,-1,-1,-1,-1,-1,-1],"loss_changes":[2.3775613E0,1.9444053E0,2.3511686E0,0E0,1.425416E0,1.6159039E0,1.1979705E0,2.4627018E-1,8.532049E-1,0E0,8.870948E-1,1.237708E0,8.3757067E-1,0E0,0E0,0E0,0E0,0E0,3.6614174E-1,1.0799006E0,0E0,0E0,4.935771E-1,0E0,0E0,1.1834759E0,9.0397227E-1,0E0,0E0,0E0,0E0,0E0,0E0],"parents":[2147483647,0,0,1,1,2,2,4,4,5,5,6,6,7,7,8,8,10,10,11,11,12,12,18,18,19,19,22,22,25,25,26,26],"right_children":[2,4,6,-1,8,10,12,14,16,-1,18,20,22,-1,-1,-1,-1,-1,24,26,-1,-1,28,-1,-1,30,32,-1,-1,-1,-1,-1,-1],"split_conditions":[8.8E1,1E0,2.5E1,1.2606688E-1,6.78E-1,3.45E1,1.55E2,7.6E1,3E0,-2.410224E-1,1.28E2,1.52E2,6.13E-1,-2.9299027E-1,-6.148094E-2,-1.2992173E-1,1.4034386E-1,-1.1066263E-1,1E0,4.93E-1,-1.7927378E-1,2.8459653E-1,2.49E2,1.9545297E-1,-9.744534E-3,4.3E1,3.2E1,1.2663078E-1,-7.3234E-2,-7.8262836E-2,1.3690956E-1,-1.1576952E-2,1.9133401E-1],"split_indices":[4,0,7,0,6,5,1,4,0,0,1,1,6,0,0,0,0,0,0,6,0,0,4,0,0,7,5,0,0,0,0,0,0],"split_type":[0,0,0,0,0,0,0,0,0,0,0,0,0,0,0,0,0,0,0,0,0,0,0,0,0,0,0,0,0,0,0,0,0],"sum_hessian":[3.961197E1,8.994512E0,3.0617458E1,1.4923283E0,7.502183E0,6.8078713E0,2.3809587E1,5.284495E0,2.2176878E0,2.9525168E0,3.8553548E0,1.8268917E1,5.54067E0,4.148832E0,1.1356629E0,1.033544E0,1.184144E0,1.5756458E0,2.2797089E0,1.7153606E1,1.1153096E0,2.9015408E0,2.6391294E0,1.207659E0,1.0720499E0,8.614242E0,8.539365E0,1.5157702E0,1.1233591E0,6.2365866E0,2.3776555E0,2.6118412E0,5.927524E0],"tree_param":{"num_deleted":"0","num_feature":"8","num_nodes":"33","size_leaf_vector":"1"}},{"base_weights":[-4.5398455E-3,-2.1184595E-1,1.9899258E-1,-3.0143797E-1,1.5514073E-1,4.3412548E-1,-6.0469747E-2,-5.7417476E-1,1.4736153E-1,5.525618E-2,7.644852E-1,-3.4602025E-1,4.1109878E-1,-2.6256046E-1,-2.7947468E-1,-2.6457402E-1,5.4268044E-1,-1.7175156E-1,4.731641E-1,2.9543602E-1,-3.1206679E-2,-6.560641E-1,2.3121679E-1,-2.9226474E-2,2.26254E-1,6.956786E-2,-2.3281479E-1,4.7032207E-2,-1.9175735E-1,3.598546E-2,2.0843744E-1,2.1674263E-1,2.6880633E-2,-2.5221527E-1,-2.9574862E-1,1.17425986E-1,-1.1356001E-2,1.2909673E-1,-8.329012E-2,-1.5299681E-1,4.2911388E-2],"categories":[],"categories_nodes":[],"categories_segments":[],"categories_sizes":[],"default_left":[0,0,0,0,0,0,0,0,0,0,0,0,0,0,0,0,0,0,0,0,0,0,0,0,0,0,0,0,0,0,0,0,0,0,0,0,0,0,0,0,0],"id":9,"left_children":[1,3,5,7,-1,9,11,13,15,17,19,21,23,-1,25,27,29,-1,31,-1,-1,33,35,-1,-1,37,-1,-1,-1,-1,-1,-1,-1,39,-1,-1,-1,-1,-1,-1,-1],"loss_changes":[1.6537249E0,1.4233282E0,1.2335057E0,2.2773657E0,0E0,1.2723672E0,1.5272249E0,7.620139E-1,1.375864E0,1.8371756E0,1.1610634E0,1.3953652E0,8.2997334E-1,0E0,1.3024217E0,7.9124475E-1,1.8603265E-1,0E0,3.3036745E-1,0E0,0E0,3.881297E-1,1.5136065E-1,0E0,0E0,7.6421577E-1,0E0,0E0,0E0,0E0,0E0,0E0,0E0,4.2884576E-1,0E0,0E0,0E0,0E0,0E0,0E0,0E0],"parents":[2147483647,0,0,1,1,2,2,3,3,5,5,6,6,7,7,8,8,9,9,10,10,11,11,12,12,14,14,15,15,16,16,18,18,21,21,22,22,25,25,33,33],"right_children":[2,4,6,8,-1,10,12,14,16,18,20,22,24,-1,26,28,30,-1,32,-1,-1,34,36,-1,-1,38,-1,-1,-1,-1,-1,-1,-1,40,-1,-1,-1,-1,-1,-1,-1],"split_conditions":[1.28E2,4.55E1,4E0,6.4E-1,1.5514073E-1,2.7E1,8E0,3.36E1,3E0,2.7E1,3.65E1,7.6E1,1.42E2,-2.6256046E-1,3.75E1,8.8E-1,1.04E2,-1.7175156E-1,7E1,2.9543602E-1,-3.1206679E-2,5.91E-1,1.43E2,-2.9226474E-2,2.26254E-1,2E0,-2.3281479E-1,4.7032207E-2,-1.9175735E-1,3.598546E-2,2.0843744E-1,2.1674263E-1,2.6880633E-2,1.45E2,-2.9574862E-1,1.17425986E-1,-1.1356001E-2,1.2909673E-1,-8.329012E-2,-1.5299681E-1,4.2911388E-2],"split_indices":[1,5,0,6,0,7,0,5,0,3,5,2,4,0,5,6,1,0,2,0,0,6,1,0,0,0,0,0,0,0,0,0,0,1,0,0,0,0,0,0,0],"split_type":[0,0,0,0,0,0,0,0,0,0,0,0,0,0,0,0,0,0,0,0,0,0,0,0,0,0,0,0,0,0,0,0,0,0,0,0,0,0,0,0,0],"sum_hessian":[3.7194717E1,1.8406301E1,1.8788416E1,1.6914055E1,1.4922467E0,9.503171E0,9.285245E0,1.0346871E1,6.5671825E0,4.9702997E0,4.5328717E0,5.949101E0,3.3361442E0,4.1440516E0,6.2028203E0,3.3779638E0,3.1892185E0,1.8385645E0,3.131735E0,3.5089288E0,1.0239427E0,3.781457E0,2.167644E0,1.6324862E0,1.7036579E0,4.1474676E0,2.0553527E0,1.8635064E0,1.5144572E0,1.3171974E0,1.8720212E0,1.3625178E0,1.7692173E0,2.4930985E0,1.2883584E0,1.0736713E0,1.0939727E0,1.9166249E0,2.2308428E0,1.3332814E0,1.1598172E0],"tree_param":{"num_deleted":"0","num_feature":"8","num_nodes":"41","size_leaf_vector":"1"}},{"base_weights":[-4.7999113E-3,-8.028715E-2,4.67447E-1,-1.6386859E-1,3.5407755E-1,8.887114E-3,6.432966E-1,-1.6840542E-2,-4.250339E-1,-1.7130731E-1,2.3101069E-1,2.2707069E-1,5.543796E-2,-3.4797943E-1,4.430691E-1,-5.748926E-1,2.678577E-2,-1.1007217E-1,2.5097521E-2,-5.206216E-1,1.0942175E-1,7.794648E-1,-3.661014E-1,-2.5744912E-1,-2.7025867E-1,1.24027066E-1,-1.1976052E-1,9.675637E-2,-1.9736826E-1,2.8186372E-1,7.404157E-2,-1.5713448E-2,-1.5234923E-1,-2.0497976E-1,1.2196221E-1],"categories":[],"categories_nodes":[],"categories_segments":[],"categories_sizes":[],"default_left":[0,0,0,0,0,0,0,0,0,0,0,0,0,0,0,0,0,0,0,0,0,0,0,0,0,0,0,0,0,0,0,0,0,0,0],"id":10,"left_children":[1,3,5,7,9,-1,11,13,15,17,-1,-1,-1,19,21,23,25,-1,-1,27,-1,29,31,33,-1,-1,-1,-1,-1,-1,-1,-1,-1,-1,-1],"loss_changes":[1.3162379E0,1.2117795E0,3.7283194E-1,1.0424693E0,1.3217881E0,0E0,4.677427E-2,2.9762495E0,6.7925954E-1,1.9147532E-1,0E0,0E0,0E0,1.5844306E0,2.5165625E0,5.34539E-1,7.24616E-1,0E0,0E0,1.3158288E0,0E0,2.8905892E-1,1.106796E-1,1.7346574E0,0E0,0E0,0E0,0E0,0E0,0E0,0E0,0E0,0E0,0E0,0E0],"parents":[2147483647,0,0,1,1,2,2,3,3,4,4,6,6,7,7,8,8,9,9,13,13,14,14,15,15,16,16,19,19,21,21,22,22,23,23],"right_children":[2,4,6,8,10,-1,12,14,16,18,-1,-1,-1,20,22,24,26,-1,-1,28,-1,30,32,34,-1,-1,-1,-1,-1,-1,-1,-1,-1,-1,-1],"split_conditions":[1.66E2,8E0,7.2E1,4E0,1.42E2,8.887114E-3,3.8E1,2.7E1,3.5E1,1.35E2,2.3101069E-1,2.2707069E-1,5.543796E-2,4.23E1,3.66E1,3.22E1,3.72E1,-1.1007217E-1,2.5097521E-2,4.9E1,1.0942175E-1,3.4E1,5.57E-1,2.97E1,-2.7025867E-1,1.24027066E-1,-1.1976052E-1,9.675637E-2,-1.9736826E-1,2.8186372E-1,7.404157E-2,-1.5713448E-2,-1.5234923E-1,-2.0497976E-1,1.2196221E-1],"split_indices":[1,0,2,0,4,0,7,7,5,1,0,0,0,5,5,5,5,0,0,4,0,7,6,5,0,0,0,0,0,0,0,0,0,0,0],"split_type":[0,0,0,0,0,0,0,0,0,0,0,0,0,0,0,0,0,0,0,0,0,0,0,0,0,0,0,0,0,0,0,0,0,0,0],"sum_hessian":[3.4869778E1,3.0779722E1,4.090056E0,2.6335018E1,4.4447045E0,1.5068419E0,2.583214E0,1.7530415E1,8.804603E0,2.2239094E0,2.220795E0,1.5486797E0,1.0345343E0,1.0333547E1,7.196868E0,6.407111E0,2.3974915E0,1.0100174E0,1.213892E0,8.535513E0,1.7980342E0,5.109438E0,2.0874302E0,4.1527634E0,2.2543476E0,1.2722535E0,1.125238E0,1.0061483E0,7.529364E0,3.3413737E0,1.7680644E0,1.0757598E0,1.0116704E0,2.5124793E0,1.6402841E0],"tree_param":{"num_deleted":"0","num_feature":"8","num_nodes":"35","size_leaf_vector":"1"}},{"base_weights":[3.0249066E-3,-3.327894E-1,9.88131E-2,-5.479212E-1,3.902775E-2,-2.6323634E-1,1.757902E-1,-2.4289228E-1,5.292933E-2,1.5104532E-1,-1.07993476E-1,-4.9257207E-1,7.299265E-2,1.0231679E-1,4.69659E-1,-2.1426643E-1,6.611239E-3,2.292444E-1,-1.4861198E-1,2.17227E-2,2.1143274E-1,4.4432986E-1,-9.2872106E-2,2.3532535E-1,-4.3554714E-1,-6.7781443E-3,2.179785E-1,-1.9753614E-1,6.896544E-2,-2.9876057E-2,1.3115205E-1,-1.8884544E-1,1.8582296E-2],"categories":[],"categories_nodes":[],"categories_segments":[],"categories_sizes":[],"default_left":[0,0,0,0,0,0,0,0,0,0,0,0,0,0,0,0,0,0,0,0,0,0,0,0,0,0,0,0,0,0,0,0,0],"id":11,"left_children":[1,3,5,7,9,11,13,-1,-1,-1,-1,15,-1,17,19,-1,-1,21,23,-1,-1,25,27,29,31,-1,-1,-1,-1,-1,-1,-1,-1],"loss_changes":[1.118352E0,6.3875383E-1,7.994929E-1,1.0823383E0,8.78494E-1,7.168558E-1,4.4612157E-1,0E0,0E0,0E0,0E0,4.5695478E-1,0E0,6.5794826E-1,3.5052037E-1,0E0,0E0,9.6975833E-1,8.9421487E-1,0E0,0E0,1.0982915E0,1.2818422E0,2.9521626E-1,4.696533E-1,0E0,0E0,0E0,0E0,0E0,0E0,0E0,0E0],"parents":[2147483647,0,0,1,1,2,2,3,3,4,4,5,5,6,6,11,11,13,13,14,14,17,17,18,18,21,21,22,22,23,23,24,24],"right_children":[2,4,6,8,10,12,14,-1,-1,-1,-1,16,-1,18,20,-1,-1,22,24,-1,-1,26,28,30,32,-1,-1,-1,-1,-1,-1,-1,-1],"split_conditions":[1.02E2,9E1,2.2E1,8.2E1,2.6E1,6.58E-1,8E0,-2.4289228E-1,5.292933E-2,1.5104532E-1,-1.07993476E-1,1.4E2,7.299265E-2,4E0,1.42E2,-2.1426643E-1,6.611239E-3,3.67E1,1.4E2,2.17227E-2,2.1143274E-1,2.7E1,3.6E1,3.42E1,7.6E1,-6.7781443E-3,2.179785E-1,-1.9753614E-1,6.896544E-2,-2.9876057E-2,1.3115205E-1,-1.8884544E-1,1.8582296E-2],"split_indices":[1,4,3,2,3,6,0,0,0,0,0,1,0,0,4,0,0,5,1,0,0,7,3,5,2,0,0,0,0,0,0,0,0],"split_type":[0,0,0,0,0,0,0,0,0,0,0,0,0,0,0,0,0,0,0,0,0,0,0,0,0,0,0,0,0,0,0,0,0],"sum_hessian":[3.2744724E1,6.718118E0,2.6026606E1,3.9557235E0,2.7623947E0,4.139143E0,2.1887463E1,2.8193161E0,1.1364075E0,1.1555029E0,1.6068918E0,2.8681757E0,1.2709669E0,1.8588192E1,3.2992697E0,1.7336004E0,1.1345755E0,1.2401529E1,6.1866636E0,1.7129924E0,1.5862774E0,7.2086926E0,5.1928368E0,2.7229931E0,3.4636707E0,3.0625575E0,4.146135E0,1.5088019E0,3.6840346E0,1.2144942E0,1.5084989E0,2.3012426E0,1.162428E0],"tree_param":{"num_deleted":"0","num_feature":"8","num_nodes":"33","size_leaf_vector":"1"}},{"base_weights":[-4.1699797E-4,-4.4618234E-1,6.1725512E-2,-1.803399E-1,-3.716137E-2,1.6883838E-1,1.967174E-3,-2.5960612E-1,1.4245534E-1,-2.4099432E-1,1.3593033E-2,3.6869034E-2,5.308369E-1,-3.5197264E-1,3.088465E-1,1.53979E-1,-1.5170139E-1,2.1578233E-1,8.006456E-3,-1.7939681E-1,4.712576E-2,-1.7001526E-2,1.9289726E-1,6.407192E-3,1.8313555E-1],"categories":[],"categories_nodes":[],"categories_segments":[],"categories_sizes":[],"default_left":[0,0,0,0,0,0,0,0,0,0,0,0,0,0,0,0,0,0,0,0,0,0,0,0,0],"id":12,"left_children":[1,3,5,-1,-1,-1,7,9,11,-1,13,15,17,19,21,23,-1,-1,-1,-1,-1,-1,-1,-1,-1],"loss_changes":[9.1291505E-1,1.2690735E-1,8.6513877E-1,0E0,0E0,0E0,1.0236907E0,1.4571819E0,7.232528E-1,0E0,9.1429186E-1,1.0510526E0,3.4154975E-1,5.701019E-1,6.057795E-1,7.960092E-1,0E0,0E0,0E0,0E0,0E0,0E0,0E0,0E0,0E0],"parents":[2147483647,0,0,1,1,2,2,6,6,7,7,8,8,10,10,11,11,12,12,13,13,14,14,15,15],"right_children":[2,4,6,-1,-1,-1,8,10,12,-1,14,16,18,20,22,24,-1,-1,-1,-1,-1,-1,-1,-1,-1],"split_conditions":[2.64E1,3E0,2.85E1,-1.803399E-1,-3.716137E-2,1.6883838E-1,1.2E2,3.29E1,1.66E2,-2.4099432E-1,4.67E-1,1.53E2,1.001E0,8.4E1,1.03E2,4.23E1,-1.5170139E-1,2.1578233E-1,8.006456E-3,-1.7939681E-1,4.712576E-2,-1.7001526E-2,1.9289726E-1,6.407192E-3,1.8313555E-1],"split_indices":[5,0,5,0,0,0,4,5,1,0,6,1,6,2,1,5,0,0,0,0,0,0,0,0,0],"split_type":[0,0,0,0,0,0,0,0,0,0,0,0,0,0,0,0,0,0,0,0,0,0,0,0,0],"sum_hessian":[3.0961838E1,3.032059E0,2.792978E1,1.4634409E0,1.568618E0,2.079073E0,2.5850706E1,8.736476E0,1.7114231E1,2.2728188E0,6.463657E0,1.4316928E1,2.7973027E0,2.8021255E0,3.6615317E0,1.2364236E1,1.9526917E0,1.7256058E0,1.0716969E0,1.7713666E0,1.0307587E0,2.1452522E0,1.5162796E0,1.0391827E1,1.9724097E0],"tree_param":{"num_deleted":"0","num_feature":"8","num_nodes":"25","size_leaf_vector":"1"}},{"base_weights":[-4.6450735E-4,-1.5184477E-1,1.4466354E-1,-2.3663053E-1,1.24868445E-1,-6.5843984E-2,2.091829E-1,-5.725652E-1,7.743145E-2,1.7520404E-1,1.0517373E-1,-2.1972702E-1,-1.5819024E-3,-2.4840194E-1,4.5203787E-1,3.492219E-1,-5.834839E-2,-1.9486673E-1,3.6991976E-2,2.7242221E-2,1.688004E-1,-4.0038258E-2,6.075615E-1,-2.4831137E-1,1.2686329E-1,1.4883383E-1,-1.9130197E-1,2.3287554E-1,2.899768E-2,-1.3875543E-1,4.7175713E-2],"categories":[],"categories_nodes":[],"categories_segments":[],"categories_sizes":[],"default_left":[0,0,0,0,0,0,0,0,0,0,0,0,0,0,0,0,0,0,0,0,0,0,0,0,0,0,0,0,0,0,0],"id":13,"left_children":[1,3,5,7,-1,-1,9,11,13,-1,15,-1,-1,17,19,21,23,-1,25,-1,-1,-1,27,29,-1,-1,-1,-1,-1,-1,-1],"loss_changes":[6.9818366E-1,8.476076E-1,4.271421E-1,1.5394294E0,0E0,0E0,4.9592698E-1,6.278734E-1,1.1137557E0,0E0,5.156486E-1,0E0,0E0,6.002872E-1,1.1560577E-1,7.198331E-1,8.6266655E-1,0E0,1.5204186E0,0E0,0E0,0E0,2.2805452E-1,6.437089E-1,0E0,0E0,0E0,0E0,0E0,0E0,0E0],"parents":[2147483647,0,0,1,1,2,2,3,3,6,6,7,7,8,8,10,10,13,13,14,14,15,15,16,16,18,18,22,22,23,23],"right_children":[2,4,6,8,-1,-1,10,12,14,-1,16,-1,-1,18,20,22,24,-1,26,-1,-1,-1,28,30,-1,-1,-1,-1,-1,-1,-1],"split_conditions":[1.28E2,4.55E1,2.2E1,5.1E-1,1.24868445E-1,-6.5843984E-2,6.2E1,8.2E1,3E0,1.7520404E-1,1.43E2,-2.1972702E-1,-1.5819024E-3,3.09E1,1.04E2,2.7E1,8E0,-1.9486673E-1,3.67E1,2.7242221E-2,1.688004E-1,-4.0038258E-2,7E0,1.66E2,1.2686329E-1,1.4883383E-1,-1.9130197E-1,2.3287554E-1,2.899768E-2,-1.3875543E-1,4.7175713E-2],"split_indices":[1,5,3,6,0,0,2,2,0,0,1,0,0,5,1,7,0,0,5,0,0,0,0,1,0,0,0,0,0,0,0],"split_type":[0,0,0,0,0,0,0,0,0,0,0,0,0,0,0,0,0,0,0,0,0,0,0,0,0,0,0,0,0,0,0],"sum_hessian":[2.9779785E1,1.455327E1,1.5226516E1,1.3170938E1,1.3823324E0,1.9302919E0,1.3296224E1,5.9661655E0,7.204772E0,1.8856516E0,1.1410572E1,4.4274583E0,1.538707E0,4.0334063E0,3.1713657E0,4.122433E0,7.288139E0,1.1462392E0,2.8871675E0,1.1704432E0,2.0009224E0,1.6057097E0,2.5167236E0,5.5724344E0,1.7157044E0,1.8755072E0,1.0116601E0,1.5015631E0,1.0151607E0,3.554579E0,2.0178554E0],"tree_param":{"num_deleted":"0","num_feature":"8","num_nodes":"31","size_leaf_vector":"1"}},{"base_weights":[5.271205E-3,-3.7617186E-1,5.7220787E-2,-1.5050945E-1,-3.6168072E-2,7.986385E-3,1.5393287E-1,-2.6929265E-1,8.404327E-2,1.2956366E-1,-5.5517894E-1,6.9403034E-3,4.5362258E-1,-2.2627568E-1,-3.4263514E-2,-3.6873654E-1,8.847039E-2,1.9677992E-1,-3.5828743E-3,-1.8642111E-1,2.1314561E-2,1.8470915E-1,-7.2745E-5],"categories":[],"categories_nodes":[],"categories_segments":[],"categories_sizes":[],"default_left":[0,0,0,0,0,0,0,0,0,0,0,0,0,0,0,0,0,0,0,0,0,0,0],"id":14,"left_children":[1,3,5,-1,-1,7,-1,9,11,-1,13,15,17,-1,-1,19,21,-1,-1,-1,-1,-1,-1],"loss_changes":[6.011142E-1,5.6244195E-2,5.931932E-1,0E0,0E0,5.505502E-1,0E0,1.3675878E0,5.783515E-1,0E0,3.031155E-1,5.8087176E-1,3.3814412E-1,0E0,0E0,4.2033446E-1,7.2578055E-1,0E0,0E0,0E0,0E0,0E0,0E0],"parents":[2147483647,0,0,1,1,2,2,5,5,7,7,8,8,10,10,11,11,12,12,15,15,16,16],"right_children":[2,4,6,-1,-1,8,-1,10,12,-1,14,16,18,-1,-1,20,22,-1,-1,-1,-1,-1,-1],"split_conditions":[2.64E1,3E0,1.1E1,-1.5050945E-1,-3.6168072E-2,8.8E1,1.5393287E-1,1E0,1.66E2,1.2956366E-1,7.8E1,2.4E1,1.001E0,-2.2627568E-1,-3.4263514E-2,3.4E1,1E2,1.9677992E-1,-3.5828743E-3,-1.8642111E-1,2.1314561E-2,1.8470915E-1,-7.2745E-5],"split_indices":[5,0,0,0,0,4,0,0,1,0,2,7,6,0,0,3,4,0,0,0,0,0,0],"split_type":[0,0,0,0,0,0,0,0,0,0,0,0,0,0,0,0,0,0,0,0,0,0,0],"sum_hessian":[2.824884E1,2.6380076E0,2.5610832E1,1.1235274E0,1.5144802E0,2.4032883E1,1.5779495E0,4.6262794E0,1.9406605E1,1.1920248E0,3.4342544E0,1.6899706E1,2.5068986E0,1.8766134E0,1.557641E0,2.3854146E0,1.4514291E1,1.4624841E0,1.0444146E0,1.2527235E0,1.1326913E0,1.2348943E0,1.3279396E1],"tree_param":{"num_deleted":"0","num_feature":"8","num_nodes":"23","size_leaf_vector":"1"}},{"base_weights":[4.5468365E-3,-3.2988286E-1,4.9777597E-2,-1.357315E-1,-2.9871374E-2,1.3772124E-1,-3.8457348E-4,1.5407357E-1,-4.6078265E-2,-3.2545987E-1,7.4914604E-2,2.228872E-1,-5.9085315E-1,2.3165102E-1,-1.7659178E-1,1.7308514E-1,-7.090789E-2,-2.368759E-1,-2.0259926E-2,-6.7752354E-2,1.1824159E-1,-1.290192E-1,4.9626667E-2],"categories":[],"categories_nodes":[],"categories_segments":[],"categories_sizes":[],"default_left":[0,0,0,0,0,0,0,0,0,0,0,0,0,0,0,0,0,0,0,0,0,0,0],"id":15,"left_children":[1,3,5,-1,-1,-1,7,-1,9,11,13,15,17,19,21,-1,-1,-1,-1,-1,-1,-1,-1],"loss_changes":[4.4406402E-1,5.371794E-2,5.293009E-1,0E0,0E0,0E0,5.8630085E-1,0E0,7.991176E-1,1.1668642E0,7.033958E-1,6.3165516E-1,4.7367346E-1,8.9081895E-1,6.796851E-1,0E0,0E0,0E0,0E0,0E0,0E0,0E0,0E0],"parents":[2147483647,0,0,1,1,2,2,6,6,8,8,9,9,10,10,11,11,12,12,13,13,14,14],"right_children":[2,4,6,-1,-1,-1,8,-1,10,12,14,16,18,20,22,-1,-1,-1,-1,-1,-1,-1,-1],"split_conditions":[2.64E1,3E0,2.85E1,-1.357315E-1,-2.9871374E-2,1.3772124E-1,1.54E-1,1.5407357E-1,3.42E-1,2E0,3.67E1,2.49E-1,3.2E1,3.09E1,4.2E1,1.7308514E-1,-7.090789E-2,-2.368759E-1,-2.0259926E-2,-6.7752354E-2,1.1824159E-1,-1.290192E-1,4.9626667E-2],"split_indices":[5,0,5,0,0,0,6,0,6,0,5,6,3,5,3,0,0,0,0,0,0,0,0],"split_type":[0,0,0,0,0,0,0,0,0,0,0,0,0,0,0,0,0,0,0,0,0,0,0],"sum_hessian":[2.7271116E1,2.4991837E0,2.4771933E1,1.0016924E0,1.4974912E0,1.8145511E0,2.295738E1,1.0383552E0,2.1919025E1,6.113224E0,1.5805801E1,2.0460024E0,4.0672216E0,9.786126E0,6.019676E0,1.0105821E0,1.0354204E0,2.5790236E0,1.4881978E0,2.4626133E0,7.3235126E0,3.3095033E0,2.710173E0],"tree_param":{"num_deleted":"0","num_feature":"8","num_nodes":"23","size_leaf_vector":"1"}},{"base_weights":[-2.6499238E-4,-1.4091106E-1,1.3104421E-1,-2.1703677E-1,9.5596984E-2,1.9076258E-1,-8.810951E-2,-5.016343E-1,4.3950703E-2,3.4737647E-1,-2.033008E-3,-1.9799984E-1,1.05583356E-4,-2.6528764E-1,3.765114E-1,9.5777944E-2,5.738014E-1,-2.576113E-1,4.05513E-1,-3.779183E-2,-1.5101463E-1,1.6919902E-1,3.679753E-2,-1.09128855E-1,3.6137196E-1,2.2387582E-1,3.0484252E-2,2.5867974E-2,-4.0063378E-1,1.5169095E-1,3.24575E-2,-9.8119974E-2,7.9682104E-2,1.7567274E-1,-1.1145733E-3,-1.7775437E-1,-1.4289397E-2],"categories":[],"categories_nodes":[],"categories_segments":[],"categories_sizes":[],"default_left":[0,0,0,0,0,0,0,0,0,0,0,0,0,0,0,0,0,0,0,0,0,0,0,0,0,0,0,0,0,0,0,0,0,0,0,0,0],"id":16,"left_children":[1,3,5,7,-1,9,-1,11,13,15,17,-1,-1,19,21,23,25,27,29,31,-1,-1,-1,-1,33,-1,-1,-1,35,-1,-1,-1,-1,-1,-1,-1,-1],"loss_changes":[5.270605E-1,5.512053E-1,4.3042362E-1,9.442228E-1,0E0,4.097558E-1,0E0,4.7877705E-1,8.604729E-1,3.712108E-1,8.404956E-1,0E0,0E0,2.2033E-1,1.2009531E-1,7.104398E-1,2.284733E-1,2.7818516E-1,3.7933946E-2,3.800902E-1,0E0,0E0,0E0,0E0,2.8931415E-1,0E0,0E0,0E0,2.2077435E-1,0E0,0E0,0E0,0E0,0E0,0E0,0E0,0E0],"parents":[2147483647,0,0,1,1,2,2,3,3,5,5,7,7,8,8,9,9,10,10,13,13,14,14,15,15,16,16,17,17,18,18,19,19,24,24,28,28],"right_children":[2,4,6,8,-1,10,-1,12,14,16,18,-1,-1,20,22,24,26,28,30,32,-1,-1,-1,-1,34,-1,-1,-1,36,-1,-1,-1,-1,-1,-1,-1,-1],"split_conditions":[1.28E2,4.55E1,5.6E1,5.1E-1,9.5596984E-2,4E0,-8.810951E-2,8.2E1,3E0,2.7E1,4.3E1,-1.9799984E-1,1.05583356E-4,8.8E-1,2.8E1,3.41E1,3.1E1,3E1,1.53E2,2.5E1,-1.5101463E-1,1.6919902E-1,3.679753E-2,-1.09128855E-1,7E1,2.2387582E-1,3.0484252E-2,2.5867974E-2,1.51E2,1.5169095E-1,3.24575E-2,-9.8119974E-2,7.9682104E-2,1.7567274E-1,-1.1145733E-3,-1.7775437E-1,-1.4289397E-2],"split_indices":[1,5,7,6,0,0,0,2,0,7,7,0,0,6,7,5,3,7,1,7,0,0,0,0,2,0,0,0,1,0,0,0,0,0,0,0,0],"split_type":[0,0,0,0,0,0,0,0,0,0,0,0,0,0,0,0,0,0,0,0,0,0,0,0,0,0,0,0,0,0,0,0,0,0,0,0,0],"sum_hessian":[2.6539068E1,1.2778654E1,1.3760415E1,1.1415461E1,1.3631927E0,1.2547171E1,1.2132447E0,5.0196495E0,6.3958116E0,6.4808154E0,6.0663548E0,3.5765533E0,1.4430962E0,3.418934E0,2.9768775E0,3.7437932E0,2.7370222E0,3.9543917E0,2.111963E0,2.340933E0,1.0780011E0,1.0095326E0,1.9673449E0,1.2358534E0,2.5079398E0,1.579678E0,1.1573441E0,1.2783189E0,2.6760728E0,1.0557854E0,1.0561775E0,1.1584262E0,1.1825068E0,1.1796011E0,1.3283389E0,1.2941271E0,1.3819458E0],"tree_param":{"num_deleted":"0","num_feature":"8","num_nodes":"37","size_leaf_vector":"1"}},{"base_weights":[5.7342523E-3,-4.647843E-2,3.259501E-1,9.072437E-3,-3.5571897E-1,-3.6074782E-3,1.3781346E-1,-7.108266E-2,1.3882765E-1,5.4701474E-2,-1.9014724E-1,8.207725E-3,-4.4194427E-1,-1.9543414E-1,1.5869717E-1,-1.6251619E-1,-4.5446623E-2,-1.05135925E-1,6.823089E-2,-1.7961808E-2,1.7410235E-1],"categories":[],"categories_nodes":[],"categories_segments":[],"categories_sizes":[],"default_left":[0,0,0,0,0,0,0,0,0,0,0,0,0,0,0,0,0,0,0,0,0],"id":17,"left_children":[1,3,5,7,9,-1,-1,11,-1,-1,-1,13,15,17,19,-1,-1,-1,-1,-1,-1],"loss_changes":[4.561118E-1,4.0781778E-1,1.7789483E-1,7.94406E-1,6.559678E-1,0E0,0E0,5.5243564E-1,0E0,0E0,0E0,5.3231144E-1,1.3734043E-2,5.6475735E-1,9.524894E-1,0E0,0E0,0E0,0E0,0E0,0E0],"parents":[2147483647,0,0,1,1,2,2,3,3,4,4,7,7,11,11,12,12,13,13,14,14],"right_children":[2,4,6,8,10,-1,-1,12,-1,-1,-1,14,16,18,20,-1,-1,-1,-1,-1,-1],"split_conditions":[1.66E2,8.8E1,7.2E1,4.18E1,3.67E1,-3.6074782E-3,1.3781346E-1,4.2E1,1.3882765E-1,5.4701474E-2,-1.9014724E-1,3.16E1,4.97E-1,1.46E2,7.8E1,-1.6251619E-1,-4.5446623E-2,-1.05135925E-1,6.823089E-2,-1.7961808E-2,1.7410235E-1],"split_indices":[1,2,2,5,5,0,0,3,0,0,0,5,6,1,2,0,0,0,0,0,0],"split_type":[0,0,0,0,0,0,0,0,0,0,0,0,0,0,0,0,0,0,0,0,0],"sum_hessian":[2.5374395E1,2.2552034E1,2.8223617E0,1.9940632E1,2.6114018E0,1.0563902E0,1.7659715E0,1.766329E1,2.2773418E0,1.0071661E0,1.6042356E0,1.535768E1,2.3056104E0,6.3993893E0,8.958291E0,1.0722145E0,1.2333959E0,4.8080654E0,1.591324E0,6.4649973E0,2.4932935E0],"tree_param":{"num_deleted":"0","num_feature":"8","num_nodes":"21","size_leaf_vector":"1"}},{"base_weights":[5.5607944E-3,-4.5965593E-2,2.682816E-1,6.741E-2,-2.4854812E-1,-4.550528E-2,1.8529028E-1,1.9761665E-1,-1.6770251E-1,-3.2021722E-1,3.913264E-2,-1.8637112E-1,5.9639984E-1,-4.4677866E-1,1.7464529E-1,-1.8830168E-1,-1.2768729E-1,1.0054157E-1,-4.8317698E-1,2.1137564E-1,4.4577483E-2,1.8283658E-3,-1.9620919E-1,-6.8626046E-2,1.3477068E-1,1.564804E-1,-4.0402326E-1,-4.1067645E-2,-1.8807025E-1,-1.9591711E-1,-1.0445394E-2],"categories":[],"categories_nodes":[],"categories_segments":[],"categories_sizes":[],"default_left":[0,0,0,0,0,0,0,0,0,0,0,0,0,0,0,0,0,0,0,0,0,0,0,0,0,0,0,0,0,0,0],"id":18,"left_children":[1,3,5,7,9,-1,-1,11,13,15,-1,17,19,21,23,-1,25,-1,27,-1,-1,-1,-1,-1,-1,-1,29,-1,-1,-1,-1],"loss_changes":[3.5985005E-1,5.2930754E-1,7.32721E-1,4.952473E-1,2.6506883E-1,0E0,0E0,1.6690614E0,6.4373493E-1,3.462357E-1,0E0,1.0821432E0,1.4862585E-1,3.3652967E-1,4.769507E-1,0E0,1.2307097E0,0E0,1.23128295E-1,0E0,0E0,0E0,0E0,0E0,0E0,0E0,3.9571512E-1,0E0,0E0,0E0,0E0],"parents":[2147483647,0,0,1,1,2,2,3,3,4,4,7,7,8,8,9,9,11,11,12,12,13,13,14,14,16,16,18,18,26,26],"right_children":[2,4,6,8,10,-1,-1,12,14,16,-1,18,20,22,24,-1,26,-1,28,-1,-1,-1,-1,-1,-1,-1,30,-1,-1,-1,-1],"split_conditions":[8E0,4E0,1.42E2,3.75E1,8.51E-1,-4.550528E-2,1.8529028E-1,2.7E1,4.2E1,2.97E1,3.913264E-2,1E0,3.3E1,1.6E2,1.21E2,-1.8830168E-1,3.19E1,1.0054157E-1,6.4E1,2.1137564E-1,4.4577483E-2,1.8283658E-3,-1.9620919E-1,-6.8626046E-2,1.3477068E-1,1.564804E-1,3.5E1,-4.1067645E-2,-1.8807025E-1,-1.9591711E-1,-1.0445394E-2],"split_indices":[0,0,4,5,6,0,0,7,3,5,0,0,3,4,1,0,5,0,2,0,0,0,0,0,0,0,5,0,0,0,0],"split_type":[0,0,0,0,0,0,0,0,0,0,0,0,0,0,0,0,0,0,0,0,0,0,0,0,0,0,0,0,0,0,0],"sum_hessian":[2.4671633E1,2.1316042E1,3.3555903E0,1.4095001E1,7.2210407E0,1.7807353E0,1.5748551E0,9.173915E0,4.9210863E0,6.2030826E0,1.0179582E0,4.9450164E0,4.228899E0,2.5430179E0,2.3780684E0,1.5183188E0,4.684764E0,1.7467312E0,3.1982856E0,2.944203E0,1.284696E0,1.1031286E0,1.4398893E0,1.0307412E0,1.3473272E0,1.1336167E0,3.551147E0,1.5107605E0,1.6875249E0,1.661575E0,1.8895721E0],"tree_param":{"num_deleted":"0","num_feature":"8","num_nodes":"31","size_leaf_vector":"1"}},{"base_weights":[1.1466357E-3,-2.3480958E-1,6.676895E-2,-4.0911663E-1,4.4861235E-2,1.2981878E-1,2.327466E-2,-1.9430049E-1,2.6787767E-2,7.074968E-2,-5.0599802E-2,-2.5814515E-1,8.87655E-2,-1.458171E-1,-3.574789E-4,1.5538648E-1,-9.560165E-2,5.876866E-2,1.6985033E-1,1.2466475E-1,-3.0521732E-2],"categories":[],"categories_nodes":[],"categories_segments":[],"categories_sizes":[],"default_left":[0,0,0,0,0,0,0,0,0,0,0,0,0,0,0,0,0,0,0,0,0],"id":19,"left_children":[1,3,5,7,9,-1,11,-1,-1,-1,-1,13,15,-1,-1,17,-1,19,-1,-1,-1],"loss_changes":[3.938897E-1,2.8824508E-1,3.065146E-1,4.7509712E-1,1.6320671E-1,0E0,3.7002662E-1,0E0,0E0,0E0,0E0,2.2262394E-1,4.8442516E-1,0E0,0E0,5.399469E-1,0E0,7.757702E-1,0E0,0E0,0E0],"parents":[2147483647,0,0,1,1,2,2,3,3,4,4,6,6,11,11,12,12,15,15,17,17],"right_children":[2,4,6,8,10,-1,12,-1,-1,-1,-1,14,16,-1,-1,18,-1,20,-1,-1,-1],"split_conditions":[1.02E2,9E1,6.5E1,8.2E1,3.1E1,1.2981878E-1,1.1E2,-1.9430049E-1,2.6787767E-2,7.074968E-2,-5.0599802E-2,2.79E-1,1.159E0,-1.458171E-1,-3.574789E-4,1.66E2,-9.560165E-2,1.4E2,1.6985033E-1,1.2466475E-1,-3.0521732E-2],"split_indices":[1,4,4,2,3,0,4,0,0,0,0,6,6,0,0,1,0,4,0,0,0],"split_type":[0,0,0,0,0,0,0,0,0,0,0,0,0,0,0,0,0,0,0,0,0],"sum_hessian":[2.3425982E1,4.5363975E0,1.8889584E1,2.509488E0,2.026909E0,1.055927E0,1.7833658E1,1.4946424E0,1.0148456E0,1.0148259E0,1.0120833E0,2.8113492E0,1.5022308E1,1.0173601E0,1.7939891E0,1.3442863E1,1.5794451E0,1.1808509E1,1.6343545E0,3.17099E0,8.637519E0],"tree_param":{"num_deleted":"0","num_feature":"8","num_nodes":"21","size_leaf_vector":"1"}},{"base_weights":[6.404155E-4,-2.0417035E-1,5.6161925E-2,-3.6388692E-1,1.1457156E-2,1.1009634E-1,1.858902E-2,-1.787948E-1,2.2623235E-2,-2.7700743E-1,8.392361E-2,-1.8353379E-1,3.4807462E-2,3.9754614E-1,-1.0975475E-2,3.6846053E-2,1.3822159E-1,-1.1488464E-1,2.9124355E-1,3.995319E-2,-8.592251E-2,8.438297E-3,1.2478813E-1],"categories":[],"categories_nodes":[],"categories_segments":[],"categories_sizes":[],"default_left":[0,0,0,0,0,0,0,0,0,0,0,0,0,0,0,0,0,0,0,0,0,0,0],"id":20,"left_children":[1,3,5,7,-1,-1,9,-1,-1,11,13,-1,-1,15,17,-1,-1,19,21,-1,-1,-1,-1],"loss_changes":[2.8224227E-1,2.188288E-1,2.211196E-1,3.7999645E-1,0E0,0E0,3.79881E-1,0E0,0E0,5.413965E-1,4.7732097E-1,0E0,0E0,7.96473E-3,4.4712678E-1,0E0,0E0,4.857349E-1,1.0817844E-1,0E0,0E0,0E0,0E0],"parents":[2147483647,0,0,1,1,2,2,3,3,6,6,9,9,10,10,13,13,14,14,17,17,18,18],"right_children":[2,4,6,8,-1,-1,10,-1,-1,12,14,-1,-1,16,18,-1,-1,20,22,-1,-1,-1,-1],"split_conditions":[1.02E2,9E1,6.5E1,8.2E1,1.1457156E-2,1.1009634E-1,2.2E1,-1.787948E-1,2.2623235E-2,7E1,6.4E1,-1.8353379E-1,3.4807462E-2,3.12E1,7E0,3.6846053E-2,1.3822159E-1,3.74E-1,4.3E1,3.995319E-2,-8.592251E-2,8.438297E-3,1.2478813E-1],"split_indices":[1,4,4,2,0,0,3,0,0,2,2,0,0,5,0,0,0,6,7,0,0,0,0],"split_type":[0,0,0,0,0,0,0,0,0,0,0,0,0,0,0,0,0,0,0,0,0,0,0],"sum_hessian":[2.2811989E1,4.2941556E0,1.8517834E1,2.2861493E0,2.008006E0,1.0515361E0,1.7466297E1,1.2624717E0,1.0236777E0,2.57523E0,1.48910675E1,1.0901307E0,1.4850992E0,2.7183423E0,1.2172725E1,1.0588101E0,1.6595322E0,9.519565E0,2.6531603E0,3.982924E0,5.5366406E0,1.2472856E0,1.4058746E0],"tree_param":{"num_deleted":"0","num_feature":"8","num_nodes":"23","size_leaf_vector":"1"}},{"base_weights":[2.8670554E-3,-1.493595E-1,8.079269E-2,-4.1536456E-1,1.5191351E-1,-7.56798E-4,1.2851053E-1,-2.5668055E-2,-1.7077029E-1,-5.2588392E-2,1.4236614E-1,2.4956273E-1,-1.2684062E-1,-3.2690473E-2,4.1861454E-1,1.7596376E-1,-2.8823867E-1,2.628392E-2,1.5351069E-1,-8.0808245E-2,1.3467926E-1,-3.9738318E-1,4.8044745E-2,-9.3160436E-4,-1.8332419E-1],"categories":[],"categories_nodes":[],"categories_segments":[],"categories_sizes":[],"default_left":[0,0,0,0,0,0,0,0,0,0,0,0,0,0,0,0,0,0,0,0,0,0,0,0,0],"id":21,"left_children":[1,3,5,7,9,11,-1,-1,-1,-1,-1,13,15,-1,17,19,21,-1,-1,-1,-1,23,-1,-1,-1],"loss_changes":[2.8843993E-1,7.234106E-1,4.5550656E-1,1.8694699E-1,5.683688E-1,4.7368017E-1,0E0,0E0,0E0,0E0,0E0,3.5038522E-1,5.3831494E-1,0E0,6.682128E-2,6.1807853E-1,4.0069193E-1,0E0,0E0,0E0,0E0,4.8899162E-1,0E0,0E0,0E0],"parents":[2147483647,0,0,1,1,2,2,3,3,4,4,5,5,11,11,12,12,14,14,15,15,16,16,21,21],"right_children":[2,4,6,8,10,12,-1,-1,-1,-1,-1,14,16,-1,18,20,22,-1,-1,-1,-1,24,-1,-1,-1],"split_conditions":[1.14E2,4.93E-1,8E0,2.7E1,1.03E2,3.74E-1,1.2851053E-1,-2.5668055E-2,-1.7077029E-1,-5.2588392E-2,1.4236614E-1,1.59E2,1.68E2,-3.2690473E-2,2.9E1,3.07E1,4.5E1,2.628392E-2,1.5351069E-1,-8.0808245E-2,1.3467926E-1,3.31E1,4.8044745E-2,-9.3160436E-4,-1.8332419E-1],"split_indices":[4,6,0,3,1,6,0,0,0,0,0,4,4,0,7,5,3,0,0,0,0,5,0,0,0],"split_type":[0,0,0,0,0,0,0,0,0,0,0,0,0,0,0,0,0,0,0,0,0,0,0,0,0],"sum_hessian":[2.2298315E1,7.2394557E0,1.505886E1,3.6436467E0,3.5958087E0,1.3005325E1,2.0535343E0,1.654165E0,1.9894817E0,2.012005E0,1.5838035E0,4.028344E0,8.976981E0,1.404675E0,2.623669E0,3.0898194E0,5.887162E0,1.001988E0,1.621681E0,1.1792219E0,1.9105974E0,4.8261533E0,1.0610088E0,2.0529444E0,2.773209E0],"tree_param":{"num_deleted":"0","num_feature":"8","num_nodes":"25","size_leaf_vector":"1"}},{"base_weights":[5.4965257E-3,-9.5836796E-2,1.1267674E-1,-2.9790124E-1,8.3211474E-2,-8.834441E-2,1.8180174E-1,-4.4809708E-1,2.3067752E-2,2.6021105E-1,-1.9332053E-1,3.675527E-1,-2.2242827E-2,-5.352552E-4,-1.8215242E-1,-1.52627835E-2,1.293211E-1,-1.4245148E-1,4.394197E-2,4.9744445E-1,2.0554267E-2,-2.0857343E-1,7.770492E-2,5.5529166E-2,1.8755446E-1,-1.2215644E-1,3.3256687E-2],"categories":[],"categories_nodes":[],"categories_segments":[],"categories_sizes":[],"default_left":[0,0,0,0,0,0,0,0,0,0,0,0,0,0,0,0,0,0,0,0,0,0,0,0,0,0,0],"id":22,"left_children":[1,3,5,7,9,-1,11,13,-1,15,17,19,21,-1,-1,-1,-1,-1,-1,23,-1,25,-1,-1,-1,-1,-1],"loss_changes":[2.5520882E-1,4.6283698E-1,3.7427318E-1,3.6695147E-1,4.0277046E-1,0E0,4.0084505E-1,3.0869818E-1,0E0,2.7796453E-1,3.932693E-1,1.7878759E-1,3.621764E-1,0E0,0E0,0E0,0E0,0E0,0E0,3.0348003E-2,0E0,3.046721E-1,0E0,0E0,0E0,0E0,0E0],"parents":[2147483647,0,0,1,1,2,2,3,3,4,4,6,6,7,7,9,9,10,10,11,11,12,12,19,19,21,21],"right_children":[2,4,6,8,10,-1,12,14,-1,16,18,20,22,-1,-1,-1,-1,-1,-1,24,-1,26,-1,-1,-1,-1,-1],"split_conditions":[1.5E2,4.22E-1,1.8E1,8.4E1,3E1,-8.834441E-2,3.47E1,2.95E1,2.3067752E-2,2.5E1,1.1E2,3.9E1,8.2E1,-5.352552E-4,-1.8215242E-1,-1.52627835E-2,1.293211E-1,-1.4245148E-1,4.394197E-2,1.33E2,2.0554267E-2,3E0,7.770492E-2,5.5529166E-2,1.8755446E-1,-1.2215644E-1,3.3256687E-2],"split_indices":[4,6,3,2,7,0,5,5,0,7,1,7,2,0,0,0,0,0,0,1,0,0,0,0,0,0,0],"split_type":[0,0,0,0,0,0,0,0,0,0,0,0,0,0,0,0,0,0,0,0,0,0,0,0,0,0,0],"sum_hessian":[2.1503626E1,1.1107704E1,1.0395922E1,4.9065857E0,6.2011185E0,1.0356479E0,9.360273E0,3.3632178E0,1.5433679E0,3.8169968E0,2.3841214E0,4.48031E0,4.8799634E0,1.1494639E0,2.213754E0,1.6021547E0,2.214842E0,1.0865164E0,1.2976052E0,2.66099E0,1.8193201E0,3.090787E0,1.7891766E0,1.4832189E0,1.1777712E0,1.7363942E0,1.3543928E0],"tree_param":{"num_deleted":"0","num_feature":"8","num_nodes":"27","size_leaf_vector":"1"}},{"base_weights":[4.1404287E-3,-3.876157E-2,2.717686E-1,1.5220923E-2,-3.3812326E-1,9.838489E-2,2.3133427E-2,-5.7899985E-2,1.2378421E-1,-1.8696437E-2,-1.3602784E-1,-1.24563545E-1,2.18339E-1,5.538682E-2,-1.73421E-1,-3.3374727E-2,1.21851616E-1,-1.4664717E-1,-1.5573182E-2],"categories":[],"categories_nodes":[],"categories_segments":[],"categories_sizes":[],"default_left":[0,0,0,0,0,0,0,0,0,0,0,0,0,0,0,0,0,0,0],"id":23,"left_children":[1,3,5,7,9,-1,-1,11,-1,-1,-1,13,15,-1,17,-1,-1,-1,-1],"loss_changes":[2.6245278E-1,3.2487184E-1,9.226486E-3,5.3876257E-1,6.923309E-2,0E0,0E0,3.189331E-1,0E0,0E0,0E0,2.3442483E-1,2.58343E-1,0E0,4.378305E-1,0E0,0E0,0E0,0E0],"parents":[2147483647,0,0,1,1,2,2,3,3,4,4,7,7,11,11,12,12,14,14],"right_children":[2,4,6,8,10,-1,-1,12,-1,-1,-1,14,16,-1,18,-1,-1,-1,-1],"split_conditions":[1.66E2,8.8E1,1.8E2,4.23E1,3.97E1,9.838489E-2,2.3133427E-2,8.51E-1,1.2378421E-1,-1.8696437E-2,-1.3602784E-1,6.5E1,3E0,5.538682E-2,2.5E1,-3.3374727E-2,1.21851616E-1,-1.4664717E-1,-1.5573182E-2],"split_indices":[1,2,1,5,5,0,0,6,0,0,0,4,0,0,7,0,0,0,0],"split_type":[0,0,0,0,0,0,0,0,0,0,0,0,0,0,0,0,0,0,0],"sum_hessian":[2.0940718E1,1.8784624E1,2.1560936E0,1.6718933E1,2.0656917E0,1.1417984E0,1.0142952E0,1.4842239E1,1.8766932E0,1.063154E0,1.0025378E0,1.2399093E1,2.4431465E0,1.3127524E0,1.1086341E1,1.0349164E0,1.4082301E0,2.2425323E0,8.843808E0],"tree_param":{"num_deleted":"0","num_feature":"8","num_nodes":"19","size_leaf_vector":"1"}},{"base_weights":[5.826078E-3,-7.887942E-2,4.469217E-2,1.177742E-1,-1.4968261E-3,-2.4984953E-1,5.9814524E-2,3.3235952E-2,-1.6957164E-1,1.2011112E-1,-1.04258336E-1,4.264952E-2,1.6669753E-1,-4.886737E-2,5.4314848E-2],"categories":[],"categories_nodes":[],"categories_segments":[],"categories_sizes":[],"default_left":[0,0,0,0,0,0,0,0,0,0,0,0,0,0,0],"id":24,"left_children":[1,-1,3,-1,5,7,9,-1,-1,11,-1,13,-1,-1,-1],"loss_changes":[2.365544E-1,0E0,3.1644973E-1,0E0,2.9434672E-1,4.9781537E-1,4.2301077E-1,0E0,0E0,4.5756817E-1,0E0,4.0481833E-1,0E0,0E0,0E0],"parents":[2147483647,0,0,2,2,4,4,5,5,6,6,9,9,11,11],"right_children":[2,-1,4,-1,6,8,10,-1,-1,12,-1,14,-1,-1,-1],"split_conditions":[2.64E1,-7.887942E-2,2.85E1,1.177742E-1,8.8E1,2.8E1,1.159E0,3.3235952E-2,-1.6957164E-1,1.66E2,-1.04258336E-1,2.8E1,1.6669753E-1,-4.886737E-2,5.4314848E-2],"split_indices":[5,0,5,0,4,7,6,0,0,1,0,7,0,0,0],"split_type":[0,0,0,0,0,0,0,0,0,0,0,0,0,0,0],"sum_hessian":[2.0521446E1,1.8643664E0,1.865708E1,1.3077633E0,1.7349316E1,2.8261976E0,1.4523118E1,1.6211747E0,1.2050229E0,1.3264747E1,1.2583716E0,1.2193982E1,1.0707648E0,4.835587E0,7.3583946E0],"tree_param":{"num_deleted":"0","num_feature":"8","num_nodes":"15","size_leaf_vector":"1"}},{"base_weights":[2.755523E-3,-2.956859E-2,9.056897E-2,-9.889384E-2,1.37173105E-2,9.945383E-2,-2.7227325E-2,-1.0453294E-1,1.7079141E-2,-2.1448335E-1,9.543477E-2,-1.0594032E-1,9.780256E-3,1.05330445E-1,2.6096872E-3],"categories":[],"categories_nodes":[],"categories_segments":[],"categories_sizes":[],"default_left":[0,0,0,0,0,0,0,0,0,0,0,0,0,0,0],"id":25,"left_children":[1,3,-1,-1,5,-1,7,-1,9,11,13,-1,-1,-1,-1],"loss_changes":[2.1218546E-1,2.6276597E-1,0E0,0E0,2.4760489E-1,0E0,2.5026608E-1,0E0,3.1148624E-1,1.6098405E-1,2.78043E-1,0E0,0E0,0E0,0E0],"parents":[2147483647,0,0,1,1,4,4,6,6,8,8,9,9,10,10],"right_children":[2,4,-1,-1,6,-1,8,-1,10,12,14,-1,-1,-1,-1],"split_conditions":[1.292E0,9.5E1,9.056897E-2,-9.889384E-2,6.5E1,9.945383E-2,1.8E1,-1.0453294E-1,1.14E2,1.27E2,1.35E2,-1.0594032E-1,9.780256E-3,1.05330445E-1,2.6096872E-3],"split_indices":[6,1,0,0,4,0,3,0,4,1,4,0,0,0,0],"split_type":[0,0,0,0,0,0,0,0,0,0,0,0,0,0,0],"sum_hessian":[2.0020681E1,1.8881561E1,1.1391193E0,1.5463067E0,1.7335255E1,1.168583E0,1.6166672E1,1.1275687E0,1.5039103E1,3.3630517E0,1.1676051E1,1.8792857E0,1.4837661E0,2.185633E0,9.490418E0],"tree_param":{"num_deleted":"0","num_feature":"8","num_nodes":"15","size_leaf_vector":"1"}},{"base_weights":[1.4954449E-3,8.742613E-2,-1.0885988E-1,1.5731506E-1,-1.6546422E-1,-2.7549684E-1,1.5958208E-1,-3.359983E-2,4.4195426E-1,4.8250128E-2,-1.24037E-1,-4.344644E-1,-3.5104107E-2,-9.899867E-2,1.4375697E-1,-1.8606894E-1,1.1495106E-1,1.6196269E-1,3.9970566E-2,-1.7510673E-1,-1.4915163E-2,1.0634134E-1,-1.093636E-1,-6.430072E-2,1.96141E-2,9.2183515E-2,-3.5588762E-1,-1.5440358E-1,2.6817562E-2],"categories":[],"categories_nodes":[],"categories_segments":[],"categories_sizes":[],"default_left":[0,0,0,0,0,0,0,0,0,0,0,0,0,0,0,0,0,0,0,0,0,0,0,0,0,0,0,0,0],"id":26,"left_children":[1,3,5,7,9,11,13,15,17,-1,-1,19,21,23,-1,25,-1,-1,-1,-1,-1,-1,-1,-1,-1,-1,27,-1,-1],"loss_changes":[2.0594668E-1,2.4166262E-1,4.6953285E-1,5.621459E-1,3.196974E-1,2.2308114E-1,4.009078E-1,5.134059E-1,5.2432835E-2,0E0,0E0,1.8147296E-1,5.874595E-1,7.4549094E-2,0E0,5.9251887E-1,0E0,0E0,0E0,0E0,0E0,0E0,0E0,0E0,0E0,0E0,3.8211977E-1,0E0,0E0],"parents":[2147483647,0,0,1,1,2,2,3,3,4,4,5,5,6,6,7,7,8,8,11,11,12,12,13,13,15,15,26,26],"right_children":[2,4,6,8,10,12,14,16,18,-1,-1,20,22,24,-1,26,-1,-1,-1,-1,-1,-1,-1,-1,-1,-1,28,-1,-1],"split_conditions":[4E0,8.8E-1,4.3E1,2.8E1,2.9E1,1.56E2,3.41E1,4.23E1,3.3E1,4.8250128E-2,-1.24037E-1,3.6E1,3.19E1,1.43E2,1.4375697E-1,6.5E1,1.1495106E-1,1.6196269E-1,3.9970566E-2,-1.7510673E-1,-1.4915163E-2,1.0634134E-1,-1.093636E-1,-6.430072E-2,1.96141E-2,9.2183515E-2,1.38E2,-1.5440358E-1,2.6817562E-2],"split_indices":[0,6,7,7,7,4,5,5,3,0,0,3,5,1,0,4,0,0,0,0,0,0,0,0,0,0,1,0,0],"split_type":[0,0,0,0,0,0,0,0,0,0,0,0,0,0,0,0,0,0,0,0,0,0,0,0,0,0,0,0,0],"sum_hessian":[1.9714054E1,1.1200391E1,8.513663E0,9.071357E0,2.1290338E0,5.2366815E0,3.2769818E0,5.957478E0,3.113879E0,1.0711356E0,1.0578983E0,2.666235E0,2.5704463E0,2.1929836E0,1.0839981E0,4.767064E0,1.1904141E0,1.7955843E0,1.3182945E0,1.5485544E0,1.1176807E0,1.1429238E0,1.4275225E0,1.1101391E0,1.0828446E0,1.0134369E0,3.753627E0,2.652032E0,1.1015952E0],"tree_param":{"num_deleted":"0","num_feature":"8","num_nodes":"29","size_leaf_vector":"1"}},{"base_weights":[5.885347E-3,3.762225E-2,-8.573488E-2,-1.8497746E-2,2.6169354E-1,1.0097813E-1,-2.342504E-1,1.2068212E-1,-1.7857939E-2,-6.230008E-2,3.0502152E-1,-6.843786E-2,-1.3904609E-1,-2.016684E-1,1.1403262E-1,-2.4380846E-2,4.3019953E-1,-1.0004503E-1,1.4095882E-1,6.0571235E-2,-1.2687634E-1,1.9020607E-1,5.273258E-3,-4.640779E-2,1.1503475E-1],"categories":[],"categories_nodes":[],"categories_segments":[],"categories_sizes":[],"default_left":[0,0,0,0,0,0,0,0,0,0,0,0,0,0,0,0,0,0,0,0,0,0,0,0,0],"id":27,"left_children":[1,3,-1,5,7,9,11,-1,-1,13,15,17,-1,19,-1,-1,21,-1,23,-1,-1,-1,-1,-1,-1],"loss_changes":[1.9558291E-1,2.4240021E-1,0E0,4.3716592E-1,1.9779408E-1,3.862508E-1,1.9704568E-1,0E0,0E0,5.0540435E-1,2.8010046E-1,3.0594814E-1,0E0,6.1589193E-1,0E0,0E0,3.2422513E-1,0E0,2.9657146E-1,0E0,0E0,0E0,0E0,0E0,0E0],"parents":[2147483647,0,0,1,1,3,3,4,4,5,5,6,6,9,9,10,10,11,11,13,13,16,16,18,18],"right_children":[2,4,-1,6,8,10,12,-1,-1,14,16,18,-1,20,-1,-1,22,-1,24,-1,-1,-1,-1,-1,-1],"split_conditions":[5.7E1,4.3E1,-8.573488E-2,4E0,1.53E2,1.28E2,3.59E1,1.2068212E-1,-1.7857939E-2,4.55E1,3.3E-1,5E0,-1.3904609E-1,7.5E1,1.1403262E-1,-2.4380846E-2,2.04E2,-1.0004503E-1,7.4E1,6.0571235E-2,-1.2687634E-1,1.9020607E-1,5.273258E-3,-4.640779E-2,1.1503475E-1],"split_indices":[7,7,0,0,1,1,5,0,0,5,6,0,0,4,0,0,4,0,2,0,0,0,0,0,0],"split_type":[0,0,0,0,0,0,0,0,0,0,0,0,0,0,0,0,0,0,0,0,0,0,0,0,0],"sum_hessian":[1.8967392E1,1.7891588E1,1.0758029E0,1.5041741E1,2.849847E0,1.0023223E1,5.018519E0,1.8067862E0,1.0430609E0,5.953681E0,4.0695415E0,3.6656265E0,1.3528925E0,4.9412417E0,1.0124395E0,1.0818359E0,2.9877055E0,1.3562943E0,2.3093324E0,1.7806766E0,3.1605651E0,1.6406957E0,1.3470099E0,1.2037506E0,1.1055816E0],"tree_param":{"num_deleted":"0","num_feature":"8","num_nodes":"25","size_leaf_vector":"1"}},{"base_weights":[7.82837E-3,-6.988538E-2,4.4612367E-2,-7.2036885E-2,9.235218E-2,1.7721218E-1,-6.716565E-2,4.253566E-2,1.5751044E-1,-2.545082E-1,1.9805655E-1,-8.9157015E-2,2.9455736E-1,-1.2051704E-1,2.6266819E-2,8.29928E-2,8.729701E-3,3.898555E-2,-1.2057749E-1,1.6722102E-2,1.1563295E-1],"categories":[],"categories_nodes":[],"categories_segments":[],"categories_sizes":[],"default_left":[0,0,0,0,0,0,0,0,0,0,0,0,0,0,0,0,0,0,0,0,0],"id":28,"left_children":[1,-1,3,-1,5,7,9,11,-1,13,15,17,19,-1,-1,-1,-1,-1,-1,-1,-1],"loss_changes":[1.8154001E-1,0E0,2.6144588E-1,0E0,2.2574045E-1,4.7356683E-1,3.589968E-1,3.1565943E-1,0E0,2.4049526E-1,3.3553086E-2,4.9730876E-1,4.8513114E-2,0E0,0E0,0E0,0E0,0E0,0E0,0E0,0E0],"parents":[2147483647,0,0,2,2,4,4,5,5,6,6,7,7,9,9,10,10,11,11,12,12],"right_children":[2,-1,4,-1,6,8,10,12,-1,14,16,18,20,-1,-1,-1,-1,-1,-1,-1,-1],"split_conditions":[2.64E1,-6.988538E-2,7E1,-7.2036885E-2,3.67E1,8.51E-1,4.2E1,7.8E1,1.5751044E-1,5E0,8.2E1,3.7E1,5E0,-1.2051704E-1,2.6266819E-2,8.29928E-2,8.729701E-3,3.898555E-2,-1.2057749E-1,1.6722102E-2,1.1563295E-1],"split_indices":[5,0,4,0,5,6,3,2,0,0,2,7,0,0,0,0,0,0,0,0,0],"split_type":[0,0,0,0,0,0,0,0,0,0,0,0,0,0,0,0,0,0,0,0,0],"sum_hessian":[1.8323772E1,1.7216027E0,1.660217E1,1.8052522E0,1.4796918E1,9.586295E0,5.2106233E0,7.719575E0,1.8667197E0,3.077321E0,2.1333025E0,5.4946213E0,2.224954E0,2.0294788E0,1.0478423E0,1.021042E0,1.1122605E0,3.5748084E0,1.9198129E0,1.0580523E0,1.1669015E0],"tree_param":{"num_deleted":"0","num_feature":"8","num_nodes":"21","size_leaf_vector":"1"}},{"base_weights":[9.034971E-3,-7.958644E-2,1.004394E-1,-2.4642111E-1,6.947581E-2,1.1564699E-1,4.629941E-3,-3.8065007E-1,2.4659522E-2,2.2835995E-1,-5.5272352E-2,-1.2741677E-1,8.687535E-2,-9.937628E-3,-1.5293536E-1,1.0808616E-1,-2.0708093E-2,3.4906633E-2,-2.4011311E-1,-3.4878635E-1,1.4565103E-2,-1.3303281E-1,-2.5189867E-2],"categories":[],"categories_nodes":[],"categories_segments":[],"categories_sizes":[],"default_left":[0,0,0,0,0,0,0,0,0,0,0,0,0,0,0,0,0,0,0,0,0,0,0],"id":29,"left_children":[1,3,5,7,9,-1,11,13,-1,15,-1,17,-1,-1,-1,-1,-1,-1,19,21,-1,-1,-1],"loss_changes":[1.6064665E-1,2.689451E-1,2.6364613E-1,2.517589E-1,2.8910264E-1,0E0,3.4868658E-1,1.5033776E-1,0E0,1.9022931E-1,0E0,2.025733E-1,0E0,0E0,0E0,0E0,0E0,0E0,1.635418E-1,5.093813E-2,0E0,0E0,0E0],"parents":[2147483647,0,0,1,1,2,2,3,3,4,4,6,6,7,7,9,9,11,11,18,18,19,19],"right_children":[2,4,6,8,10,-1,12,14,-1,16,-1,18,-1,-1,-1,-1,-1,-1,20,22,-1,-1,-1],"split_conditions":[1.5E2,4.22E-1,1.68E2,8.4E1,3E1,1.1564699E-1,8.2E1,3E1,2.4659522E-2,6.8E1,-5.5272352E-2,3.19E1,8.687535E-2,-9.937628E-3,-1.5293536E-1,1.0808616E-1,-2.0708093E-2,3.4906633E-2,3.84E1,5.29E-1,1.4565103E-2,-1.3303281E-1,-2.5189867E-2],"split_indices":[4,6,4,2,7,0,2,5,0,2,0,5,0,0,0,0,0,0,5,6,0,0,0],"split_type":[0,0,0,0,0,0,0,0,0,0,0,0,0,0,0,0,0,0,0,0,0,0,0],"sum_hessian":[1.7845146E1,9.126154E0,8.718993E0,3.998159E0,5.127995E0,1.4327614E0,7.2862315E0,2.726254E0,1.271905E0,3.2147667E0,1.9132282E0,5.3567767E0,1.9294552E0,1.078996E0,1.647258E0,2.080363E0,1.1344036E0,1.6832619E0,3.6735146E0,2.5174785E0,1.1560363E0,1.3576864E0,1.159792E0],"tree_param":{"num_deleted":"0","num_feature":"8","num_nodes":"23","size_leaf_vector":"1"}},{"base_weights":[5.1554395E-3,4.261379E-2,-6.469646E-2,-7.922888E-2,1.7013079E-1,-1.1577632E-1,2.9768836E-2,2.95689E-1,-6.62033E-2,-8.278069E-2,1.4540681E-1,1.2972648E-1,1.6163246E-1,2.9552305E-1,-9.712706E-3,3.3671343E-1,-5.1932756E-2,-6.4934473E-3,1.3512294E-1,8.383849E-2,-8.6610705E-2,-7.970509E-3,1.6920246E-1],"categories":[],"categories_nodes":[],"categories_segments":[],"categories_sizes":[],"default_left":[0,0,0,0,0,0,0,0,0,0,0,0,0,0,0,0,0,0,0,0,0,0,0],"id":30,"left_children":[1,3,-1,5,7,-1,9,11,-1,-1,13,15,-1,17,19,21,-1,-1,-1,-1,-1,-1,-1],"loss_changes":[1.6233338E-1,2.724021E-1,0E0,3.1917778E-1,4.8040557E-1,0E0,3.1300682E-1,2.0567816E-1,0E0,0E0,1.4853786E-1,3.9529902E-1,0E0,1.674842E-1,4.0699464E-1,3.067248E-1,0E0,0E0,0E0,0E0,0E0,0E0,0E0],"parents":[2147483647,0,0,1,1,3,3,4,4,6,6,7,7,10,10,11,11,13,13,14,14,15,15],"right_children":[2,4,-1,6,8,-1,10,12,-1,-1,14,16,-1,18,20,22,-1,-1,-1,-1,-1,-1,-1],"split_conditions":[8.8E1,3.42E1,-6.469646E-2,1.04E2,2.58E2,-1.1577632E-1,3.23E-1,8.2E1,-6.62033E-2,-8.278069E-2,2.6E1,7.2E1,1.6163246E-1,6.5E1,3.2E1,1.21E2,-5.1932756E-2,-6.4934473E-3,1.3512294E-1,8.383849E-2,-8.6610705E-2,-7.970509E-3,1.6920246E-1],"split_indices":[2,5,0,1,4,0,6,2,0,0,3,2,0,2,7,1,0,0,0,0,0,0,0],"split_type":[0,0,0,0,0,0,0,0,0,0,0,0,0,0,0,0,0,0,0,0,0,0,0],"sum_hessian":[1.7515295E1,1.56649065E1,1.8503894E0,8.204334E0,7.4605722E0,1.4850742E0,6.7192597E0,5.8306904E0,1.6298817E0,1.4636645E0,5.255595E0,4.376428E0,1.4542625E0,2.2108874E0,3.0447078E0,2.5331569E0,1.8432711E0,1.007678E0,1.2032094E0,1.494234E0,1.5504738E0,1.3148162E0,1.2183406E0],"tree_param":{"num_deleted":"0","num_feature":"8","num_nodes":"23","size_leaf_vector":"1"}},{"base_weights":[8.173424E-3,-3.2628085E-2,7.372333E-2,9.1092676E-2,-1.3948843E-1,-7.207332E-2,2.4303952E-1,1.3046095E-1,-2.477376E-1,3.339427E-1,-2.2052824E-3,-3.9116584E-2,9.864591E-2,-1.3364212E-1,-2.7988417E-2,-1.1306623E-2,1.4054485E-1,7.2379515E-2,-1.9833182E-1,-1.13663666E-1,1.9079339E-2],"categories":[],"categories_nodes":[],"categories_segments":[],"categories_sizes":[],"default_left":[0,0,0,0,0,0,0,0,0,0,0,0,0,0,0,0,0,0,0,0,0],"id":31,"left_children":[1,3,-1,5,7,-1,9,11,13,15,-1,-1,-1,-1,17,-1,-1,-1,19,-1,-1],"loss_changes":[1.8234825E-1,2.2729947E-1,0E0,4.6755895E-1,2.9836124E-1,0E0,1.4059517E-1,2.1159807E-1,2.8489035E-1,2.4136022E-1,0E0,0E0,0E0,0E0,2.4545239E-1,0E0,0E0,0E0,1.7484233E-1,0E0,0E0],"parents":[2147483647,0,0,1,1,3,3,4,4,6,6,7,7,8,8,9,9,14,14,18,18],"right_children":[2,4,-1,6,8,-1,10,12,14,16,-1,-1,-1,-1,18,-1,-1,-1,20,-1,-1],"split_conditions":[1.66E2,7.2E1,7.372333E-2,1.07E2,1.12E2,-7.207332E-2,5E0,1.06E2,3.1E1,2.5E1,-2.2052824E-3,-3.9116584E-2,9.864591E-2,-1.3364212E-1,3.8E1,-1.1306623E-2,1.4054485E-1,7.2379515E-2,1.4E2,-1.13663666E-1,1.9079339E-2],"split_indices":[1,2,0,1,1,0,0,4,7,3,0,0,0,0,7,0,0,0,4,0,0],"split_type":[0,0,0,0,0,0,0,0,0,0,0,0,0,0,0,0,0,0,0,0,0],"sum_hessian":[1.6984678E1,1.5231424E1,1.7532535E0,7.127223E0,8.104202E0,2.0581307E0,5.0690923E0,2.2608798E0,5.8433223E0,3.4741342E0,1.5949577E0,1.1246213E0,1.1362584E0,2.535037E0,3.3082855E0,1.1147636E0,2.3593707E0,1.1206244E0,2.187661E0,1.0307072E0,1.1569537E0],"tree_param":{"num_deleted":"0","num_feature":"8","num_nodes":"21","size_leaf_vector":"1"}},{"base_weights":[7.560323E-3,-2.4804302E-2,8.0430984E-2,-7.48815E-2,1.6869406E-1,3.6998678E-2,-2.1884564E-1,-2.6111413E-2,8.8915184E-2,-8.449242E-2,1.2880388E-1,-3.5552412E-1,-2.1423584E-2,2.3151931E-1,-6.25571E-2,-1.5997848E-1,1.1132944E-2,5.3109054E-2,-7.208472E-2,1.19765356E-1,1.9346159E-2],"categories":[],"categories_nodes":[],"categories_segments":[],"categories_sizes":[],"default_left":[0,0,0,0,0,0,0,0,0,0,0,0,0,0,0,0,0,0,0,0,0],"id":32,"left_children":[1,3,-1,5,7,9,11,-1,-1,-1,13,15,17,19,-1,-1,-1,-1,-1,-1,-1],"loss_changes":[1.5413669E-1,1.722553E-1,0E0,2.3003227E-1,1.4642829E-1,2.881105E-1,1.5887496E-1,0E0,0E0,0E0,3.036211E-1,2.6975214E-1,1.9838901E-1,1.4577195E-1,0E0,0E0,0E0,0E0,0E0,0E0,0E0],"parents":[2147483647,0,0,1,1,3,3,4,4,5,5,6,6,10,10,11,11,12,12,13,13],"right_children":[2,4,-1,6,8,10,12,-1,-1,-1,14,16,18,20,-1,-1,-1,-1,-1,-1,-1],"split_conditions":[1.1E1,1.56E2,8.0430984E-2,4E0,2E0,2.3E1,1.56E2,-2.6111413E-2,8.8915184E-2,-8.449242E-2,8.8E-1,5.07E-1,3.22E1,1.08E2,-6.25571E-2,-1.5997848E-1,1.1132944E-2,5.3109054E-2,-7.208472E-2,1.19765356E-1,1.9346159E-2],"split_indices":[0,1,0,0,0,7,4,0,0,0,6,6,5,1,0,0,0,0,0,0,0],"split_type":[0,0,0,0,0,0,0,0,0,0,0,0,0,0,0,0,0,0,0,0,0],"sum_hessian":[1.6490515E1,1.5473229E1,1.0172856E0,1.2779038E1,2.6941915E0,7.6088796E0,5.1701584E0,1.0032623E0,1.6909292E0,1.2393823E0,6.3694973E0,2.581861E0,2.5882974E0,5.1231704E0,1.246327E0,1.5307547E0,1.0511065E0,1.4576609E0,1.1306363E0,1.8628359E0,3.2603345E0],"tree_param":{"num_deleted":"0","num_feature":"8","num_nodes":"21","size_leaf_vector":"1"}},{"base_weights":[2.8472748E-3,-3.6951475E-2,1.930911E-1,4.1478265E-2,-1.7044729E-1,-2.4172485E-2,1.13883086E-1,1.4804053E-1,-1.3891877E-1,-2.507473E-1,1.9217167E-2,-1.7158407E-1,4.6017706E-1,-9.866013E-2,5.0850753E-2,-5.817823E-4,-3.5346842E-1,6.5441415E-2,-1.1817656E-1,3.119291E-2,1.6550775E-1,-1.2607342E-1,-3.2523844E-2],"categories":[],"categories_nodes":[],"categories_segments":[],"categories_sizes":[],"default_left":[0,0,0,0,0,0,0,0,0,0,0,0,0,0,0,0,0,0,0,0,0,0,0],"id":33,"left_children":[1,3,5,7,9,-1,-1,11,13,15,-1,17,19,-1,-1,-1,21,-1,-1,-1,-1,-1,-1],"loss_changes":[1.3697785E-1,1.6434523E-1,1.902273E-1,2.1792534E-1,1.2443085E-1,0E0,0E0,7.7115846E-1,3.0931836E-1,1.1407995E-1,0E0,4.4607964E-1,6.5916E-2,0E0,0E0,0E0,6.3586533E-3,0E0,0E0,0E0,0E0,0E0,0E0],"parents":[2147483647,0,0,1,1,2,2,3,3,4,4,7,7,8,8,9,9,11,11,12,12,16,16],"right_children":[2,4,6,8,10,-1,-1,12,14,16,-1,18,20,-1,-1,-1,22,-1,-1,-1,-1,-1,-1],"split_conditions":[8E0,4E0,4.93E-1,3.75E1,4.3E1,-2.4172485E-2,1.13883086E-1,2.7E1,4.55E1,3E1,1.9217167E-2,1E0,1.18E2,-9.866013E-2,5.0850753E-2,-5.817823E-4,6E0,6.5441415E-2,-1.1817656E-1,3.119291E-2,1.6550775E-1,-1.2607342E-1,-3.2523844E-2],"split_indices":[0,0,6,5,7,0,0,7,5,7,0,0,1,0,0,0,0,0,0,0,0,0,0],"split_type":[0,0,0,0,0,0,0,0,0,0,0,0,0,0,0,0,0,0,0,0,0,0,0],"sum_hessian":[1.6148972E1,1.4021467E1,2.1275043E0,9.266578E0,4.754889E0,1.0925266E0,1.0349777E0,5.938193E0,3.328385E0,3.4904203E0,1.2644688E0,3.1563818E0,2.7818108E0,2.0187807E0,1.3096043E0,1.3176724E0,2.1727479E0,1.1534536E0,2.0029283E0,1.0052584E0,1.7765524E0,1.145665E0,1.0270828E0],"tree_param":{"num_deleted":"0","num_feature":"8","num_nodes":"23","size_leaf_vector":"1"}},{"base_weights":[5.013577E-3,3.837086E-2,-5.4895785E-2,-7.7738516E-2,1.5887228E-1,-9.617057E-2,2.4097158E-2,2.7203673E-1,-5.6188148E-2,2.0269784E-1,-1.3629903E-1,1.1717421E-1,1.4595039E-1,-1.691914E-3,9.1347024E-2,4.8378922E-2,-1.0705052E-1,-1.06647715E-1,1.00674294E-1,-8.7702215E-2,3.6074564E-2],"categories":[],"categories_nodes":[],"categories_segments":[],"categories_sizes":[],"default_left":[0,0,0,0,0,0,0,0,0,0,0,0,0,0,0,0,0,0,0,0,0],"id":34,"left_children":[1,3,-1,5,7,-1,9,11,-1,13,15,17,-1,-1,-1,-1,-1,19,-1,-1,-1],"loss_changes":[1.1103368E-1,2.2100483E-1,0E0,2.1214287E-1,3.5049993E-1,0E0,2.211109E-1,1.479339E-1,0E0,7.801537E-2,3.302957E-1,2.7534297E-1,0E0,0E0,0E0,0E0,0E0,1.6909683E-1,0E0,0E0,0E0],"parents":[2147483647,0,0,1,1,3,3,4,4,6,6,7,7,9,9,10,10,11,11,17,17],"right_children":[2,4,-1,6,8,-1,10,12,-1,14,16,18,-1,-1,-1,-1,-1,20,-1,-1,-1],"split_conditions":[8.8E1,3.42E1,-5.4895785E-2,3.23E-1,2.58E2,-9.617057E-2,2.6E1,8.2E1,-5.6188148E-2,6.5E1,3.2E1,1.28E2,1.4595039E-1,-1.691914E-3,9.1347024E-2,4.8378922E-2,-1.0705052E-1,2.6E1,1.00674294E-1,-8.7702215E-2,3.6074564E-2],"split_indices":[2,5,0,6,4,0,3,2,0,2,7,1,0,0,0,0,0,7,0,0,0],"split_type":[0,0,0,0,0,0,0,0,0,0,0,0,0,0,0,0,0,0,0,0,0],"sum_hessian":[1.5585842E1,1.3913101E1,1.6727413E0,7.266411E0,6.64669E0,1.5123265E0,5.7540846E0,5.1705422E0,1.4761474E0,2.597757E0,3.1563272E0,3.9004369E0,1.2701056E0,1.1626873E0,1.4350698E0,1.4579418E0,1.6983856E0,2.1790555E0,1.7213814E0,1.0397147E0,1.1393408E0],"tree_param":{"num_deleted":"0","num_feature":"8","num_nodes":"21","size_leaf_vector":"1"}},{"base_weights":[4.845999E-3,5.557088E-2,-1.3462411E-1,-2.8942013E-2,3.2036796E-1,6.1395355E-2,-3.3208197E-1,-8.5658796E-2,4.2063195E-2,1.6465373E-2,1.267142E-1,-8.0891815E-4,-1.4375706E-1,1.0006153E-1,-4.925452E-2,9.441862E-2,-1.1539494E-1,-7.034771E-2,7.103993E-2],"categories":[],"categories_nodes":[],"categories_segments":[],"categories_sizes":[],"default_left":[0,0,0,0,0,0,0,0,0,0,0,0,0,0,0,0,0,0,0],"id":35,"left_children":[1,3,5,7,9,-1,11,-1,13,-1,-1,-1,-1,-1,15,17,-1,-1,-1],"loss_changes":[1.2208058E-1,2.9093882E-1,3.7695494E-1,2.0255066E-1,6.1533064E-2,0E0,1.584563E-1,0E0,2.5765917E-1,0E0,0E0,0E0,0E0,0E0,4.1084704E-1,3.4795433E-1,0E0,0E0,0E0],"parents":[2147483647,0,0,1,1,2,2,3,3,4,4,6,6,8,8,14,14,15,15],"right_children":[2,4,6,8,10,-1,12,-1,14,-1,-1,-1,-1,-1,16,18,-1,-1,-1],"split_conditions":[3.86E1,8.51E-1,7.8E1,1.04E2,1.12E2,6.1395355E-2,5.57E-1,-8.5658796E-2,1.1E2,1.6465373E-2,1.267142E-1,-8.0891815E-4,-1.4375706E-1,1.0006153E-1,5.91E-1,1.3E2,-1.1539494E-1,-7.034771E-2,7.103993E-2],"split_indices":[5,6,2,1,1,0,6,0,1,0,0,0,0,0,6,1,0,0,0],"split_type":[0,0,0,0,0,0,0,0,0,0,0,0,0,0,0,0,0,0,0],"sum_hessian":[1.5198699E1,1.1586338E1,3.6123614E0,9.458314E0,2.1280236E0,1.3155438E0,2.2968178E0,1.3952258E0,8.063088E0,1.0176505E0,1.1103731E0,1.0234873E0,1.2733305E0,1.2907295E0,6.772359E0,5.244332E0,1.528027E0,1.3889108E0,3.8554213E0],"tree_param":{"num_deleted":"0","num_feature":"8","num_nodes":"19","size_leaf_vector":"1"}},{"base_weights":[5.878413E-4,-3.368894E-2,5.731805E-2,6.372844E-2,-1.1831531E-1,-6.296119E-2,1.9166397E-1,-8.508384E-3,-9.664869E-2,3.36558E-1,3.7689938E-4,-6.1314236E-2,9.880099E-2,2.5506703E-2,1.2848113E-1,5.656071E-2,-4.9708944E-2,-7.259606E-2,2.6833788E-1,1.632447E-2,1.1430643E-1],"categories":[],"categories_nodes":[],"categories_segments":[],"categories_sizes":[],"default_left":[0,0,0,0,0,0,0,0,0,0,0,0,0,0,0,0,0,0,0,0,0],"id":36,"left_children":[1,3,-1,5,7,-1,9,11,-1,13,15,-1,17,-1,-1,-1,-1,-1,19,-1,-1],"loss_changes":[1.096083E-1,1.2495743E-1,0E0,2.947274E-1,1.7569718E-1,0E0,1.516736E-1,1.5067977E-1,0E0,3.545299E-2,1.362859E-1,0E0,3.3560783E-1,0E0,0E0,0E0,0E0,0E0,6.6111386E-2,0E0,0E0],"parents":[2147483647,0,0,1,1,3,3,4,4,6,6,7,7,9,9,10,10,12,12,18,18],"right_children":[2,4,-1,6,8,-1,10,12,-1,14,16,-1,18,-1,-1,-1,-1,-1,20,-1,-1],"split_conditions":[1.66E2,7.2E1,5.731805E-2,1.07E2,1.45E2,-6.296119E-2,1.4E2,2.7E1,-9.664869E-2,1.21E2,3E0,-6.1314236E-2,2.86E-1,2.5506703E-2,1.2848113E-1,5.656071E-2,-4.9708944E-2,-7.259606E-2,1.78E2,1.632447E-2,1.1430643E-1],"split_indices":[1,2,0,1,1,0,4,7,0,1,0,0,6,0,0,0,0,0,4,0,0],"split_type":[0,0,0,0,0,0,0,0,0,0,0,0,0,0,0,0,0,0,0,0,0],"sum_hessian":[1.4802603E1,1.3242631E1,1.5599717E0,6.270876E0,6.971755E0,1.7939494E0,4.4769263E0,5.2080545E0,1.7637006E0,2.1152503E0,2.361676E0,1.5231841E0,3.6848705E0,1.0800627E0,1.0351876E0,1.0438046E0,1.3178715E0,1.0821964E0,2.6026742E0,1.4095768E0,1.1930975E0],"tree_param":{"num_deleted":"0","num_feature":"8","num_nodes":"21","size_leaf_vector":"1"}},{"base_weights":[4.215775E-3,-3.607654E-2,5.7159428E-2,-9.476598E-2,1.1474546E-1,9.980514E-3,-2.3525786E-1,7.755469E-2,-3.957237E-2,-1.2774177E-1,1.7502701E-1,2.0809425E-2,-3.4619442E-1,-7.5572915E-2,9.19884E-3,9.972602E-2,-1.4897426E-2,-1.2577336E-1,-3.046717E-2,1.4386223E-2,-1.0309962E-2],"categories":[],"categories_nodes":[],"categories_segments":[],"categories_sizes":[],"default_left":[0,0,0,0,0,0,0,0,0,0,0,0,0,0,0,0,0,0,0,0,0],"id":37,"left_children":[1,3,-1,5,7,9,11,-1,-1,13,15,-1,17,-1,19,-1,-1,-1,-1,-1,-1],"loss_changes":[1.2298647E-1,1.3088243E-1,0E0,1.5403429E-1,1.8481766E-1,1.7838737E-1,1.7416856E-1,0E0,0E0,7.5772494E-2,1.4184785E-1,0E0,1.8612713E-2,0E0,6.7454157E-3,0E0,0E0,0E0,0E0,0E0,0E0],"parents":[2147483647,0,0,1,1,3,3,4,4,5,5,6,6,9,9,10,10,12,12,14,14],"right_children":[2,4,-1,6,8,10,12,-1,-1,14,16,-1,18,-1,20,-1,-1,-1,-1,-1,-1],"split_conditions":[8E0,8.2E1,5.7159428E-2,1.76E2,8.8E1,1.25E2,6.2E1,7.755469E-2,-3.957237E-2,3.28E1,4E0,2.0809425E-2,3.6E1,-7.5572915E-2,1.07E2,9.972602E-2,-1.4897426E-2,-1.2577336E-1,-3.046717E-2,1.4386223E-2,-1.0309962E-2],"split_indices":[0,2,0,4,2,1,2,0,0,5,0,0,3,0,1,0,0,0,0,0,0],"split_type":[0,0,0,0,0,0,0,0,0,0,0,0,0,0,0,0,0,0,0,0,0],"sum_hessian":[1.4467082E1,1.2557735E1,1.9093465E0,9.307552E0,3.2501829E0,5.8642817E0,3.443271E0,2.0229473E0,1.2272354E0,3.319972E0,2.5443099E0,1.0192444E0,2.4240265E0,1.3008761E0,2.019096E0,1.2142372E0,1.3300725E0,1.3170174E0,1.107009E0,1.0152254E0,1.0038706E0],"tree_param":{"num_deleted":"0","num_feature":"8","num_nodes":"21","size_leaf_vector":"1"}},{"base_weights":[1.0488736E-3,-7.319857E-2,8.3648756E-2,-2.3158681E-1,9.504739E-2,-4.4455256E-2,2.6087573E-1,-3.2660896E-1,1.0484167E-2,2.1687174E-1,-5.2526467E-2,6.738321E-2,-1.8518147E-1,-7.884322E-3,1.1958862E-1,-3.319155E-2,-1.2136527E-1,-2.8530786E-2,1.2341427E-1,-1.08685456E-1,1.95799E-2],"categories":[],"categories_nodes":[],"categories_segments":[],"categories_sizes":[],"default_left":[0,0,0,0,0,0,0,0,0,0,0,0,0,0,0,0,0,0,0,0,0],"id":38,"left_children":[1,3,5,7,9,11,13,15,-1,17,-1,-1,19,-1,-1,-1,-1,-1,-1,-1,-1],"loss_changes":[9.959385E-2,2.5011092E-1,1.859921E-1,1.3044879E-1,1.9789913E-1,2.4276918E-1,1.4371894E-1,1.5190989E-2,0E0,2.694685E-1,0E0,0E0,2.0268852E-1,0E0,0E0,0E0,0E0,0E0,0E0,0E0,0E0],"parents":[2147483647,0,0,1,1,2,2,3,3,4,4,5,5,6,6,7,7,9,9,12,12],"right_children":[2,4,6,8,10,12,14,16,-1,18,-1,-1,20,-1,-1,-1,-1,-1,-1,-1,-1],"split_conditions":[1.56E2,4.93E-1,5E0,3.63E1,3.67E1,3.74E-1,7.4E1,4E0,1.0484167E-2,3.2E1,-5.2526467E-2,6.738321E-2,3.4E1,-7.884322E-3,1.1958862E-1,-3.319155E-2,-1.2136527E-1,-2.8530786E-2,1.2341427E-1,-1.08685456E-1,1.95799E-2],"split_indices":[4,6,0,5,5,6,2,0,0,5,0,0,3,0,0,0,0,0,0,0,0],"split_type":[0,0,0,0,0,0,0,0,0,0,0,0,0,0,0,0,0,0,0,0,0],"sum_hessian":[1.4241065E1,7.559654E0,6.6814103E0,3.6999815E0,3.859673E0,4.3130174E0,2.368393E0,2.5614169E0,1.1385645E0,2.7959461E0,1.0637268E0,1.276428E0,3.0365894E0,1.0301602E0,1.3382329E0,1.3208772E0,1.2405397E0,1.2700188E0,1.5259273E0,1.5171754E0,1.5194141E0],"tree_param":{"num_deleted":"0","num_feature":"8","num_nodes":"21","size_leaf_vector":"1"}},{"base_weights":[-1.1127653E-5,5.0118968E-2,-1.1487148E-1,-3.7957728E-2,2.0282733E-1,-1.1739133E-1,6.8449326E-2,-8.447982E-2,4.442288E-2,1.0110016E-1,-2.3136085E-2,-6.2169645E-2,8.88688E-2,1.275696E-1,-5.150623E-2,-4.502085E-2,8.932723E-2,3.1666204E-2,-6.1110694E-2],"categories":[],"categories_nodes":[],"categories_segments":[],"categories_sizes":[],"default_left":[0,0,0,0,0,0,0,0,0,0,0,0,0,0,0,0,0,0,0],"id":39,"left_children":[1,3,5,7,9,-1,11,-1,13,-1,-1,-1,-1,15,-1,17,-1,-1,-1],"loss_changes":[9.156876E-2,1.5660751E-1,2.7164423E-1,1.7034756E-1,1.8402512E-1,0E0,2.9726693E-1,0E0,1.4302164E-1,0E0,0E0,0E0,0E0,1.7323512E-1,0E0,1.0680834E-1,0E0,0E0,0E0],"parents":[2147483647,0,0,1,1,2,2,3,3,4,4,6,6,8,8,13,13,15,15],"right_children":[2,4,6,8,10,-1,12,-1,14,-1,-1,-1,-1,16,-1,18,-1,-1,-1],"split_conditions":[3.78E1,3.42E1,3.6E1,1.04E2,3.6E1,-1.1739133E-1,4.09E1,-8.447982E-2,3.28E1,1.0110016E-1,-2.3136085E-2,-6.2169645E-2,8.88688E-2,1.44E2,-5.150623E-2,2.6E1,8.932723E-2,3.1666204E-2,-6.1110694E-2],"split_indices":[5,5,3,1,3,0,5,0,5,0,0,0,0,1,0,3,0,0,0],"split_type":[0,0,0,0,0,0,0,0,0,0,0,0,0,0,0,0,0,0,0],"sum_hessian":[1.3903111E1,1.0071236E1,3.8318758E0,6.86385E0,3.2073853E0,1.0755299E0,2.756346E0,1.1233262E0,5.740524E0,2.030439E0,1.1769464E0,1.2878608E0,1.4684851E0,4.4414234E0,1.2991006E0,2.5703003E0,1.871123E0,1.490629E0,1.0796714E0],"tree_param":{"num_deleted":"0","num_feature":"8","num_nodes":"19","size_leaf_vector":"1"}},{"base_weights":[-6.122129E-3,-3.8437188E-2,5.085709E-2,6.264622E-2,-1.2584193E-1,-4.3993942E-2,1.5802285E-1,-5.1657227E-3,-2.855308E-1,8.740921E-2,1.0910766E-3,-7.527586E-2,1.2989396E-1,-1.3270783E-1,1.7448178E-3,5.533875E-2,-5.5653527E-2,-2.2656322E-2,8.4437214E-2],"categories":[],"categories_nodes":[],"categories_segments":[],"categories_sizes":[],"default_left":[0,0,0,0,0,0,0,0,0,0,0,0,0,0,0,0,0,0,0],"id":40,"left_children":[1,3,-1,5,7,-1,9,11,13,-1,15,-1,17,-1,-1,-1,-1,-1,-1],"loss_changes":[8.937772E-2,1.24024436E-1,0E0,1.5818012E-1,1.4078078E-1,0E0,1.06975034E-1,2.059524E-1,1.4691094E-1,0E0,1.4916039E-1,0E0,1.4670871E-1,0E0,0E0,0E0,0E0,0E0,0E0],"parents":[2147483647,0,0,1,1,3,3,4,4,6,6,7,7,8,8,10,10,12,12],"right_children":[2,4,-1,6,8,-1,10,12,14,-1,16,-1,18,-1,-1,-1,-1,-1,-1],"split_conditions":[1.66E2,7.2E1,5.085709E-2,1.07E2,3.77E1,-4.3993942E-2,1.35E2,7.6E1,4.26E1,8.740921E-2,6.2E1,-7.527586E-2,3.42E-1,-1.3270783E-1,1.7448178E-3,5.533875E-2,-5.5653527E-2,-2.2656322E-2,8.4437214E-2],"split_indices":[1,2,0,1,5,0,4,2,5,0,2,0,6,0,0,0,0,0,0],"split_type":[0,0,0,0,0,0,0,0,0,0,0,0,0,0,0,0,0,0,0],"sum_hessian":[1.3598604E1,1.2145296E1,1.453308E0,5.763307E0,6.3819895E0,1.6359211E0,4.127386E0,4.2230196E0,2.1589696E0,1.7682863E0,2.3590996E0,1.1934973E0,3.0295222E0,1.0665385E0,1.0924312E0,1.1956372E0,1.1634623E0,1.4992701E0,1.5302522E0],"tree_param":{"num_deleted":"0","num_feature":"8","num_nodes":"19","size_leaf_vector":"1"}},{"base_weights":[-8.143291E-3,-8.127719E-2,7.445355E-2,-2.0595601E-1,5.6386508E-2,-4.7450762E-2,1.5169293E-1,-3.045765E-1,2.0065311E-2,1.8311062E-1,-3.8386926E-2,9.3980305E-2,6.055198E-3,-1.2645899E-1,-2.5556419E-2,-7.121191E-3,9.068614E-2,-4.6938226E-2,6.891399E-2],"categories":[],"categories_nodes":[],"categories_segments":[],"categories_sizes":[],"default_left":[0,0,0,0,0,0,0,0,0,0,0,0,0,0,0,0,0,0,0],"id":41,"left_children":[1,3,5,7,9,-1,11,13,-1,15,-1,-1,17,-1,-1,-1,-1,-1,-1],"loss_changes":[9.2714325E-2,1.504218E-1,1.5442671E-1,1.4034553E-1,1.31557E-1,0E0,1.3835645E-1,5.2740604E-2,0E0,8.4933676E-2,0E0,0E0,1.8694681E-1,0E0,0E0,0E0,0E0,0E0,0E0],"parents":[2147483647,0,0,1,1,2,2,3,3,4,4,6,6,7,7,9,9,12,12],"right_children":[2,4,6,8,10,-1,12,14,-1,16,-1,-1,18,-1,-1,-1,-1,-1,-1],"split_conditions":[1.56E2,4.93E-1,2.5E1,8.4E1,1.05E2,-4.7450762E-2,3.25E1,1.3E2,2.0065311E-2,1.03E2,-3.8386926E-2,9.3980305E-2,8E1,-1.2645899E-1,-2.5556419E-2,-7.121191E-3,9.068614E-2,-4.6938226E-2,6.891399E-2],"split_indices":[4,6,7,2,4,0,5,1,0,1,0,0,2,0,0,0,0,0,0],"split_type":[0,0,0,0,0,0,0,0,0,0,0,0,0,0,0,0,0,0,0],"sum_hessian":[1.3346677E1,7.087316E0,6.259361E0,3.4587374E0,3.628579E0,1.2990918E0,4.960269E0,2.4550288E0,1.0037086E0,2.154311E0,1.474268E0,1.8058264E0,3.1544428E0,1.0003614E0,1.4546672E0,1.0802332E0,1.0740777E0,2.0009475E0,1.1534953E0],"tree_param":{"num_deleted":"0","num_feature":"8","num_nodes":"19","size_leaf_vector":"1"}},{"base_weights":[-7.2380374E-3,-5.9158504E-2,2.6835522E-2,-5.559394E-2,7.1447894E-2,-1.4892075E-2,2.690702E-1,8.360104E-2,-7.291154E-2,1.0277578E-1,1.93754E-2,-6.03322E-2,9.587928E-2,-6.6655174E-2,5.988237E-2],"categories":[],"categories_nodes":[],"categories_segments":[],"categories_sizes":[],"default_left":[0,0,0,0,0,0,0,0,0,0,0,0,0,0,0],"id":42,"left_children":[1,-1,3,-1,5,7,9,11,-1,-1,-1,13,-1,-1,-1],"loss_changes":[9.675547E-2,0E0,1.3497265E-1,0E0,1.9765173E-1,2.190919E-1,3.05368E-2,2.544263E-1,0E0,0E0,0E0,2.6064962E-1,0E0,0E0,0E0],"parents":[2147483647,0,0,2,2,4,4,5,5,6,6,7,7,11,11],"right_children":[2,-1,4,-1,6,8,10,12,-1,-1,-1,14,-1,-1,-1],"split_conditions":[2.64E1,-5.9158504E-2,2.4E1,-5.559394E-2,2.07E2,3.75E1,1.49E2,6.92E-1,-7.291154E-2,1.0277578E-1,1.93754E-2,3.42E1,9.587928E-2,-6.6655174E-2,5.988237E-2],"split_indices":[5,0,7,0,4,5,1,6,0,0,0,5,0,0,0],"split_type":[0,0,0,0,0,0,0,0,0,0,0,0,0,0,0],"sum_hessian":[1.3131092E1,1.2690305E0,1.18620615E1,1.5130565E0,1.0349005E1,7.845846E0,2.5031583E0,5.9225745E0,1.9232718E0,1.3444518E0,1.1587064E0,4.1412163E0,1.7813581E0,2.6416454E0,1.4995711E0],"tree_param":{"num_deleted":"0","num_feature":"8","num_nodes":"15","size_leaf_vector":"1"}},{"base_weights":[-3.3483256E-3,-4.411703E-2,1.3598064E-1,-1.9627565E-1,2.1698201E-2,7.017999E-2,-1.3127518E-2,-1.3045901E-1,3.811775E-2,-7.789725E-2,1.1202342E-1,2.6293117E-1,-1.0783495E-1,5.6881372E-2,1.4763169E-1,-1.02271855E-1,4.2327978E-2,7.369044E-2,-6.2199373E-2],"categories":[],"categories_nodes":[],"categories_segments":[],"categories_sizes":[],"default_left":[0,0,0,0,0,0,0,0,0,0,0,0,0,0,0,0,0,0,0],"id":43,"left_children":[1,3,5,7,9,-1,-1,-1,-1,-1,11,13,15,17,-1,-1,-1,-1,-1],"loss_changes":[8.483718E-2,1.1934871E-1,6.986463E-2,3.3062547E-1,2.5584978E-1,0E0,0E0,0E0,0E0,0E0,2.756336E-1,1.9443959E-1,2.652421E-1,2.3101355E-1,0E0,0E0,0E0,0E0,0E0],"parents":[2147483647,0,0,1,1,2,2,3,3,4,4,10,10,11,11,12,12,13,13],"right_children":[2,4,6,8,10,-1,-1,-1,-1,-1,12,14,16,18,-1,-1,-1,-1,-1],"split_conditions":[1.55E2,2.4E1,2.5E2,6.77E-1,3.09E1,7.017999E-2,-1.3127518E-2,-1.3045901E-1,3.811775E-2,-7.789725E-2,3.77E1,8E1,4.18E1,7.2E1,1.4763169E-1,-1.02271855E-1,4.2327978E-2,7.369044E-2,-6.2199373E-2],"split_indices":[1,3,4,6,5,0,0,0,0,0,5,2,5,2,0,0,0,0,0],"split_type":[0,0,0,0,0,0,0,0,0,0,0,0,0,0,0,0,0,0,0],"sum_hessian":[1.28793125E1,1.0492491E1,2.386821E0,2.5695987E0,7.9228926E0,1.3497366E0,1.0370846E0,1.2800913E0,1.2895074E0,1.4698218E0,6.4530706E0,3.7103953E0,2.7426755E0,2.6110303E0,1.099365E0,1.2256266E0,1.517049E0,1.5640135E0,1.0470167E0],"tree_param":{"num_deleted":"0","num_feature":"8","num_nodes":"19","size_leaf_vector":"1"}},{"base_weights":[-3.656826E-3,-4.1708063E-2,5.0920002E-2,4.1207306E-2,-1.7518407E-1,1.18484095E-1,-5.78764E-2,-9.804485E-2,-4.598589E-2,-4.4697016E-2,3.1909966E-1,-5.3491063E-2,2.1270571E-2,6.992501E-2,-2.4510723E-1,1.24055825E-1,2.0627562E-2,-1.3291E-1,2.050129E-2],"categories":[],"categories_nodes":[],"categories_segments":[],"categories_sizes":[],"default_left":[0,0,0,0,0,0,0,0,0,0,0,0,0,0,0,0,0,0,0],"id":44,"left_children":[1,3,-1,5,7,9,-1,-1,11,13,15,-1,-1,-1,17,-1,-1,-1,-1],"loss_changes":[9.615569E-2,1.3863298E-1,0E0,1.7002213E-1,7.783629E-2,2.3474231E-1,0E0,0E0,7.02268E-2,3.1271806E-1,4.5878023E-2,0E0,0E0,0E0,2.2597156E-1,0E0,0E0,0E0,0E0],"parents":[2147483647,0,0,1,1,3,3,4,4,5,5,8,8,9,9,10,10,14,14],"right_children":[2,4,-1,6,8,10,-1,-1,12,14,16,-1,-1,-1,18,-1,-1,-1,-1],"split_conditions":[8E0,4E0,5.0920002E-2,8.8E-1,2.97E1,2.7E1,-5.78764E-2,-9.804485E-2,1.34E2,1.08E2,3E1,-5.3491063E-2,2.1270571E-2,6.992501E-2,3.3E1,1.24055825E-1,2.0627562E-2,-1.3291E-1,2.050129E-2],"split_indices":[0,0,0,6,5,7,0,0,1,1,3,0,0,0,3,0,0,0,0],"split_type":[0,0,0,0,0,0,0,0,0,0,0,0,0,0,0,0,0,0,0],"sum_hessian":[1.2501116E1,1.0874184E1,1.6269323E0,7.1338854E0,3.740298E0,5.73494E0,1.3989456E0,1.0170617E0,2.7232363E0,3.5911179E0,2.1438222E0,1.0308656E0,1.6923707E0,1.4367149E0,2.154403E0,1.0833843E0,1.0604379E0,1.0671277E0,1.0872753E0],"tree_param":{"num_deleted":"0","num_feature":"8","num_nodes":"19","size_leaf_vector":"1"}},{"base_weights":[-5.586934E-3,-8.2962796E-2,6.464105E-2,-7.5732514E-2,3.8902555E-2,1.3273712E-1,-4.6518944E-2,-1.1933786E-1,6.3101284E-2,2.6377913E-1,-4.148501E-2,1.2214815E-2,-6.792267E-2,1.3741002E-2,1.03264205E-1,-5.508754E-2,4.2130947E-2],"categories":[],"categories_nodes":[],"categories_segments":[],"categories_sizes":[],"default_left":[0,0,0,0,0,0,0,0,0,0,0,0,0,0,0,0,0],"id":45,"left_children":[1,3,5,-1,7,9,-1,11,-1,13,15,-1,-1,-1,-1,-1,-1],"loss_changes":[7.734106E-2,1.4903057E-1,1.328769E-1,0E0,1.5497229E-1,1.5405884E-1,0E0,6.281471E-2,0E0,4.9343526E-2,1.17715955E-1,0E0,0E0,0E0,0E0,0E0,0E0],"parents":[2147483647,0,0,1,1,2,2,4,4,5,5,7,7,9,9,10,10],"right_children":[2,4,6,-1,8,10,-1,12,-1,14,16,-1,-1,-1,-1,-1,-1],"split_conditions":[1.28E2,4.96E-1,4.8E1,-7.5732514E-2,3E0,4E0,-4.6518944E-2,1E2,6.3101284E-2,2.5E1,7E0,1.2214815E-2,-6.792267E-2,1.3741002E-2,1.03264205E-1,-5.508754E-2,4.2130947E-2],"split_indices":[1,6,7,0,0,0,0,4,0,7,0,0,0,0,0,0,0],"split_type":[0,0,0,0,0,0,0,0,0,0,0,0,0,0,0,0,0],"sum_hessian":[1.2246027E1,5.740223E0,6.505804E0,1.9528714E0,3.7873514E0,5.2686524E0,1.2371519E0,2.1274922E0,1.6598592E0,2.7135804E0,2.5550718E0,1.1011616E0,1.0263306E0,1.1544648E0,1.5591155E0,1.4291074E0,1.1259645E0],"tree_param":{"num_deleted":"0","num_feature":"8","num_nodes":"17","size_leaf_vector":"1"}},{"base_weights":[-4.7341534E-3,-1.4313456E-1,3.869938E-2,2.1014804E-2,-8.651799E-2,-2.4862163E-2,6.8465464E-2,-9.339375E-2,5.8465667E-2,-1.736746E-1,4.995622E-2,6.845083E-3,-1.3841133E-1,3.9051868E-2,-6.5943E-2],"categories":[],"categories_nodes":[],"categories_segments":[],"categories_sizes":[],"default_left":[0,0,0,0,0,0,0,0,0,0,0,0,0,0,0],"id":46,"left_children":[1,3,5,-1,-1,7,-1,9,-1,11,-1,13,-1,-1,-1],"loss_changes":[8.397476E-2,1.23307906E-1,1.347917E-1,0E0,0E0,1.5265955E-1,0E0,1.8503898E-1,0E0,3.254543E-1,0E0,1.6274613E-1,0E0,0E0,0E0],"parents":[2147483647,0,0,1,1,2,2,5,5,7,7,9,9,11,11],"right_children":[2,4,6,-1,-1,8,-1,10,-1,12,-1,14,-1,-1,-1],"split_conditions":[8.8E1,2.6E1,1.56E2,2.1014804E-2,-8.651799E-2,4.3E1,6.8465464E-2,4.18E1,5.8465667E-2,3.59E1,4.995622E-2,3.4E1,-1.3841133E-1,3.9051868E-2,-6.5943E-2],"split_indices":[4,7,1,0,0,7,0,5,0,5,0,7,0,0,0],"split_type":[0,0,0,0,0,0,0,0,0,0,0,0,0,0,0],"sum_hessian":[1.2048192E1,2.3295681E0,9.718624E0,1.153879E0,1.175689E0,7.928386E0,1.7902381E0,6.481904E0,1.4464823E0,5.2057757E0,1.2761283E0,3.7985334E0,1.4072423E0,2.735674E0,1.0628594E0],"tree_param":{"num_deleted":"0","num_feature":"8","num_nodes":"15","size_leaf_vector":"1"}},{"base_weights":[-8.229003E-3,-6.303577E-2,8.722108E-2,-1.3072674E-1,1.0816781E-1,1.9407658E-1,-1.6078424E-2,-9.853898E-2,-2.876407E-2,7.350636E-2,-2.4470024E-2,2.5371665E-3,8.441991E-2,4.003778E-2,-1.5104793E-1,1.3885107E-2,-7.5232774E-2],"categories":[],"categories_nodes":[],"categories_segments":[],"categories_sizes":[],"default_left":[0,0,0,0,0,0,0,0,0,0,0,0,0,0,0,0,0],"id":47,"left_children":[1,3,5,7,9,11,-1,-1,13,-1,-1,-1,-1,-1,15,-1,-1],"loss_changes":[7.24443E-2,1.1507853E-1,8.695068E-2,1.2552896E-1,9.8276764E-2,4.8011184E-2,0E0,0E0,1.2952235E-1,0E0,0E0,0E0,0E0,0E0,8.270029E-2,0E0,0E0],"parents":[2147483647,0,0,1,1,2,2,3,3,4,4,5,5,8,8,14,14],"right_children":[2,4,6,8,10,12,-1,-1,14,-1,-1,-1,-1,-1,16,-1,-1],"split_conditions":[3.6E1,1.48E2,7.8E1,6.2E1,1.64E2,3.69E1,-1.6078424E-2,-9.853898E-2,1.16E2,7.350636E-2,-2.4470024E-2,2.5371665E-3,8.441991E-2,4.003778E-2,7.4E1,1.3885107E-2,-7.5232774E-2],"split_indices":[3,1,2,2,1,5,0,0,1,0,0,0,0,0,2,0,0],"split_type":[0,0,0,0,0,0,0,0,0,0,0,0,0,0,0,0,0],"sum_hessian":[1.1797225E1,7.7098675E0,4.0873575E0,5.6947036E0,2.0151637E0,2.1088586E0,1.9784987E0,1.1816735E0,4.51303E0,1.0014439E0,1.0137197E0,1.0256096E0,1.0832491E0,1.9004627E0,2.6125674E0,1.0569943E0,1.555573E0],"tree_param":{"num_deleted":"0","num_feature":"8","num_nodes":"17","size_leaf_vector":"1"}},{"base_weights":[-6.0018837E-3,-1.0228205E-1,4.812511E-2,-6.785488E-2,3.5606686E-2,-2.3721397E-2,7.004117E-2,-4.528161E-2,6.558625E-2,5.0131474E-2,-1.1796549E-1,2.0880643E-2,-2.2881615E-1,4.41004E-2,-4.079824E-2,6.2547475E-3,-1.1152237E-1],"categories":[],"categories_nodes":[],"categories_segments":[],"categories_sizes":[],"default_left":[0,0,0,0,0,0,0,0,0,0,0,0,0,0,0,0,0],"id":48,"left_children":[1,3,5,-1,7,9,-1,-1,-1,-1,11,13,15,-1,-1,-1,-1],"loss_changes":[7.0849724E-2,9.129935E-2,1.224317E-1,0E0,1.4122698E-1,1.4980598E-1,0E0,0E0,0E0,0E0,8.832821E-2,8.580248E-2,1.18446425E-1,0E0,0E0,0E0,0E0],"parents":[2147483647,0,0,1,1,2,2,4,4,5,5,10,10,11,11,12,12],"right_children":[2,4,6,-1,8,10,-1,-1,-1,-1,12,14,16,-1,-1,-1,-1],"split_conditions":[1.14E2,4.93E-1,7E0,-6.785488E-2,1.02E2,3.74E-1,7.004117E-2,-4.528161E-2,6.558625E-2,5.0131474E-2,3E1,7.4E1,2.8E1,4.41004E-2,-4.079824E-2,6.2547475E-3,-1.1152237E-1],"split_indices":[4,6,0,0,1,6,0,0,0,0,7,2,3,0,0,0,0],"split_type":[0,0,0,0,0,0,0,0,0,0,0,0,0,0,0,0,0],"sum_hessian":[1.1650719E1,3.872577E0,7.7781415E0,1.7024759E0,2.1701012E0,6.2337375E0,1.5444036E0,1.1614761E0,1.0086249E0,1.8052809E0,4.428457E0,2.3262908E0,2.102166E0,1.3244376E0,1.0018533E0,1.0762569E0,1.025909E0],"tree_param":{"num_deleted":"0","num_feature":"8","num_nodes":"17","size_leaf_vector":"1"}},{"base_weights":[-6.8293624E-3,-3.6128886E-2,4.2270273E-2,1.482415E-2,-7.273381E-2,-1.64326E-1,8.972158E-2,-1.0629649E-1,2.7359117E-2,-5.6941383E-2,1.6952899E-1,1.0542583E-1,3.116664E-2,-2.0249236E-2,5.4141916E-2],"categories":[],"categories_nodes":[],"categories_segments":[],"categories_sizes":[],"default_left":[0,0,0,0,0,0,0,0,0,0,0,0,0,0,0],"id":49,"left_children":[1,3,-1,5,-1,7,9,-1,-1,-1,11,-1,13,-1,-1],"loss_changes":[5.9048858E-2,1.2132059E-1,0E0,1.4789166E-1,0E0,1.9148749E-1,2.0271268E-1,0E0,0E0,0E0,1.5199924E-1,0E0,8.251966E-2,0E0,0E0],"parents":[2147483647,0,0,1,1,3,3,5,5,6,6,10,10,12,12],"right_children":[2,4,-1,6,-1,8,10,-1,-1,-1,12,-1,14,-1,-1],"split_conditions":[1.66E2,1.53E2,4.2270273E-2,2.4E1,-7.273381E-2,6.77E-1,3.09E1,-1.0629649E-1,2.7359117E-2,-5.6941383E-2,3.47E1,1.0542583E-1,4.23E1,-2.0249236E-2,5.4141916E-2],"split_indices":[1,1,0,3,0,6,5,0,0,0,5,0,5,0,0],"split_type":[0,0,0,0,0,0,0,0,0,0,0,0,0,0,0],"sum_hessian":[1.1466023E1,1.0198736E1,1.2672875E0,8.923176E0,1.2755601E0,2.2786849E0,6.644491E0,1.0851578E0,1.1935272E0,1.1696163E0,5.474875E0,1.7000928E0,3.7747822E0,2.6027617E0,1.1720204E0],"tree_param":{"num_deleted":"0","num_feature":"8","num_nodes":"15","size_leaf_vector":"1"}},{"base_weights":[-7.1672862E-3,-1.2580904E-1,2.8369717E-2,-6.877719E-2,1.2220293E-2,-5.28404E-2,1.569402E-1,-1.9241868E-1,6.0674794E-2,8.9263104E-2,-1.1838604E-2,-9.357573E-2,6.2197247E-3,1.925268E-1,-5.8545638E-2,-2.2744015E-2,9.801743E-2],"categories":[],"categories_nodes":[],"categories_segments":[],"categories_sizes":[],"default_left":[0,0,0,0,0,0,0,0,0,0,0,0,0,0,0,0,0],"id":50,"left_children":[1,3,5,-1,-1,7,9,11,13,-1,-1,-1,-1,15,-1,-1,-1],"loss_changes":[5.528542E-2,6.121848E-2,1.15366526E-1,0E0,0E0,1.2310996E-1,1.2832469E-1,9.292211E-2,1.9405054E-1,0E0,0E0,0E0,0E0,1.5313442E-1,0E0,0E0,0E0],"parents":[2147483647,0,0,1,1,2,2,5,5,6,6,7,7,8,8,13,13],"right_children":[2,4,6,-1,-1,8,10,12,14,-1,-1,-1,-1,16,-1,-1,-1],"split_conditions":[1.02E2,8.4E1,3.6E1,-6.877719E-2,1.2220293E-2,1.3E2,1.35E2,6.29E-1,6.13E-1,8.9263104E-2,-1.1838604E-2,-9.357573E-2,6.2197247E-3,3.18E-1,-5.8545638E-2,-2.2744015E-2,9.801743E-2],"split_indices":[1,4,3,0,0,1,1,6,6,0,0,0,0,6,0,0,0],"split_type":[0,0,0,0,0,0,0,0,0,0,0,0,0,0,0,0,0],"sum_hessian":[1.1266163E1,2.0112603E0,9.254903E0,1.0083578E0,1.0029026E0,6.0331483E0,3.2217546E0,2.3941765E0,3.6389716E0,1.5774758E0,1.6442786E0,1.2371907E0,1.1569859E0,2.5646143E0,1.0743572E0,1.000031E0,1.5645834E0],"tree_param":{"num_deleted":"0","num_feature":"8","num_nodes":"17","size_leaf_vector":"1"}},{"base_weights":[-9.174747E-3,-3.943876E-2,3.82479E-2,4.4675786E-2,-7.850433E-2,-7.334024E-2,-1.8916067E-2,1.1525961E-1,-9.732951E-2,-1.7752105E-2,6.901412E-2,2.8644992E-2,-1.8752705E-1,-9.830535E-2,1.959172E-2],"categories":[],"categories_nodes":[],"categories_segments":[],"categories_sizes":[],"default_left":[0,0,0,0,0,0,0,0,0,0,0,0,0,0,0],"id":51,"left_children":[1,3,-1,-1,5,-1,7,9,11,-1,-1,-1,13,-1,-1],"loss_changes":[5.493312E-2,8.999762E-2,0E0,0E0,8.901636E-2,0E0,9.59249E-2,8.2239985E-2,1.15707174E-1,0E0,0E0,0E0,1.6912358E-1,0E0,0E0],"parents":[2147483647,0,0,1,1,4,4,6,6,7,7,8,8,12,12],"right_children":[2,4,-1,-1,6,-1,8,10,12,-1,-1,-1,14,-1,-1],"split_conditions":[8E0,2.49E-1,3.82479E-2,4.4675786E-2,1.04E2,-7.334024E-2,1.32E2,1.25E2,1.29E2,-1.7752105E-2,6.901412E-2,2.8644992E-2,1.56E2,-9.830535E-2,1.959172E-2],"split_indices":[0,6,0,0,1,0,4,1,1,0,0,0,1,0,0],"split_type":[0,0,0,0,0,0,0,0,0,0,0,0,0,0,0],"sum_hessian":[1.10656595E1,9.641951E0,1.4237096E0,1.1732053E0,8.468745E0,1.4176755E0,7.0510697E0,2.4274642E0,4.6236053E0,1.155713E0,1.2717513E0,1.454901E0,3.1687043E0,1.848139E0,1.3205652E0],"tree_param":{"num_deleted":"0","num_feature":"8","num_nodes":"15","size_leaf_vector":"1"}},{"base_weights":[-5.9108473E-3,-6.843429E-2,5.1409576E-2,-6.0232114E-2,2.7894171E-2,1.06633574E-1,-3.6752645E-2,4.990861E-2,-4.000103E-2,7.96116E-2,-1.8425554E-2,3.414149E-2,-4.4767216E-2],"categories":[],"categories_nodes":[],"categories_segments":[],"categories_sizes":[],"default_left":[0,0,0,0,0,0,0,0,0,0,0,0,0],"id":52,"left_children":[1,3,5,-1,7,9,-1,-1,-1,-1,11,-1,-1],"loss_changes":[4.6177413E-2,8.364582E-2,7.819121E-2,0E0,1.2088563E-1,1.1767459E-1,0E0,0E0,0E0,0E0,8.8116966E-2,0E0,0E0],"parents":[2147483647,0,0,1,1,2,2,4,4,5,5,10,10],"right_children":[2,4,6,-1,8,10,-1,-1,-1,-1,12,-1,-1],"split_conditions":[1.28E2,4.96E-1,4.8E1,-6.0232114E-2,3.43E1,1.4E2,-3.6752645E-2,4.990861E-2,-4.000103E-2,7.96116E-2,4E0,3.414149E-2,-4.4767216E-2],"split_indices":[1,6,7,0,5,4,0,0,0,0,0,0,0],"split_type":[0,0,0,0,0,0,0,0,0,0,0,0,0],"sum_hessian":[1.0903119E1,5.1221437E0,5.780975E0,1.7009954E0,3.4211483E0,4.6813803E0,1.0995945E0,1.823377E0,1.5977713E0,1.5685003E0,3.11288E0,1.6125734E0,1.5003067E0],"tree_param":{"num_deleted":"0","num_feature":"8","num_nodes":"13","size_leaf_vector":"1"}},{"base_weights":[-5.6863576E-3,-6.928512E-2,6.533449E-2,-1.4897577E-1,3.4957085E-2,-3.475287E-2,5.931451E-2,1.8235315E-2,-7.56697E-2,5.160829E-2,-4.448539E-2,-4.4103518E-2,3.446613E-2],"categories":[],"categories_nodes":[],"categories_segments":[],"categories_sizes":[],"default_left":[0,0,0,0,0,0,0,0,0,0,0,0,0],"id":53,"left_children":[1,3,5,7,9,11,-1,-1,-1,-1,-1,-1,-1],"loss_changes":[5.7753567E-2,6.0884036E-2,8.745365E-2,1.01718634E-1,1.1878747E-1,8.9355916E-2,0E0,0E0,0E0,0E0,0E0,0E0,0E0],"parents":[2147483647,0,0,1,1,2,2,3,3,4,4,5,5],"right_children":[2,4,6,8,10,12,-1,-1,-1,-1,-1,-1,-1],"split_conditions":[1.56E2,3.42E1,5E0,2.85E1,5.59E-1,3.6E1,5.931451E-2,1.8235315E-2,-7.56697E-2,5.160829E-2,-4.448539E-2,-4.4103518E-2,3.446613E-2],"split_indices":[4,5,0,5,6,3,0,0,0,0,0,0,0],"split_type":[0,0,0,0,0,0,0,0,0,0,0,0,0],"sum_hessian":[1.0784099E1,5.702227E0,5.0818715E0,2.9884768E0,2.7137501E0,3.3138707E0,1.7680007E0,1.1215118E0,1.8669649E0,1.5874707E0,1.1262795E0,1.9034669E0,1.4104037E0],"tree_param":{"num_deleted":"0","num_feature":"8","num_nodes":"13","size_leaf_vector":"1"}},{"base_weights":[-4.161415E-3,-4.1138947E-2,2.1812433E-2,-4.6309397E-2,6.2051434E-2,1.2263725E-1,-3.367815E-2,-2.1957427E-2,1.8495691E-1,-3.2454438E-3,2.618956E-1,1.2459319E-1,2.377474E-2],"categories":[],"categories_nodes":[],"categories_segments":[],"categories_sizes":[],"default_left":[0,0,0,0,0,0,0,0,0,0,0,0,0],"id":54,"left_children":[1,-1,3,-1,5,7,-1,-1,9,-1,11,-1,-1],"loss_changes":[4.3339986E-2,0E0,8.4981896E-2,0E0,1.12743445E-1,1.0424511E-1,0E0,0E0,9.2032224E-2,0E0,8.7319225E-2,0E0,0E0],"parents":[2147483647,0,0,2,2,4,4,5,5,8,8,10,10],"right_children":[2,-1,4,-1,6,8,-1,-1,10,-1,12,-1,-1],"split_conditions":[2.66E1,-4.1138947E-2,2.4E1,-4.6309397E-2,1.53E2,2.86E-1,-3.367815E-2,-2.1957427E-2,1.09E2,-3.2454438E-3,1.4E2,1.2459319E-1,2.377474E-2],"split_indices":[5,0,7,0,1,6,0,0,1,0,4,0,0],"split_type":[0,0,0,0,0,0,0,0,0,0,0,0,0],"sum_hessian":[1.0682785E1,1.0463994E0,9.636385E0,1.2643833E0,8.372002E0,6.432648E0,1.939354E0,1.5107929E0,4.9218554E0,1.6310204E0,3.2908347E0,1.0962137E0,2.194621E0],"tree_param":{"num_deleted":"0","num_feature":"8","num_nodes":"13","size_leaf_vector":"1"}},{"base_weights":[-2.3969954E-3,-6.402834E-2,6.1638243E-2,4.010342E-2,-1.7768207E-1,-2.7142385E-2,5.3122077E-2,7.29854E-2,-6.9424994E-2,-9.989688E-2,1.8330086E-2,3.2711614E-2,-4.7816083E-2],"categories":[],"categories_nodes":[],"categories_segments":[],"categories_sizes":[],"default_left":[0,0,0,0,0,0,0,0,0,0,0,0,0],"id":55,"left_children":[1,3,5,7,9,11,-1,-1,-1,-1,-1,-1,-1],"loss_changes":[4.9584147E-2,8.266832E-2,6.814986E-2,2.8507543E-1,1.4035577E-1,9.591511E-2,0E0,0E0,0E0,0E0,0E0,0E0,0E0],"parents":[2147483647,0,0,1,1,2,2,3,3,4,4,5,5],"right_children":[2,4,6,8,10,12,-1,-1,-1,-1,-1,-1,-1],"split_conditions":[1.5E2,3E1,5E0,1.1E2,1.3E2,7.4E1,5.3122077E-2,7.29854E-2,-6.9424994E-2,-9.989688E-2,1.8330086E-2,3.2711614E-2,-4.7816083E-2],"split_indices":[4,7,0,1,1,2,0,0,0,0,0,0,0],"split_type":[0,0,0,0,0,0,0,0,0,0,0,0,0],"sum_hessian":[1.0563828E1,5.383008E0,5.180821E0,3.1469004E0,2.2361076E0,3.3608673E0,1.8199536E0,1.8594471E0,1.2874534E0,1.1158262E0,1.1202812E0,1.7422413E0,1.618626E0],"tree_param":{"num_deleted":"0","num_feature":"8","num_nodes":"13","size_leaf_vector":"1"}},{"base_weights":[-5.435078E-3,-3.537652E-2,4.046557E-2,7.946325E-3,-5.9298825E-2,-4.256812E-2,6.9425434E-2,-4.8433803E-2,1.3583761E-1,2.4034643E-1,-4.749136E-2,1.16695724E-1,-1.8969372E-2,-4.0978022E-2,1.9351818E-2],"categories":[],"categories_nodes":[],"categories_segments":[],"categories_sizes":[],"default_left":[0,0,0,0,0,0,0,0,0,0,0,0,0,0,0],"id":56,"left_children":[1,3,-1,5,-1,-1,7,-1,9,11,13,-1,-1,-1,-1],"loss_changes":[5.2833177E-2,7.342405E-2,0E0,9.3016386E-2,0E0,0E0,1.3037664E-1,0E0,1.2705906E-1,2.0551272E-1,3.9013468E-2,0E0,0E0,0E0,0E0],"parents":[2147483647,0,0,1,1,3,3,6,6,8,8,9,9,10,10],"right_children":[2,4,-1,6,-1,-1,8,-1,10,12,14,-1,-1,-1,-1],"split_conditions":[1.66E2,1.53E2,4.046557E-2,2.4E1,-5.9298825E-2,-4.256812E-2,3.09E1,-4.8433803E-2,3.77E1,1.76E2,1.65E2,1.16695724E-1,-1.8969372E-2,-4.0978022E-2,1.9351818E-2],"split_indices":[1,1,0,3,0,0,5,0,5,4,4,0,0,0,0],"split_type":[0,0,0,0,0,0,0,0,0,0,0,0,0,0,0],"sum_hessian":[1.0439401E1,9.219943E0,1.219457E0,8.027904E0,1.1920402E0,1.9550226E0,6.0728807E0,1.0369877E0,5.035893E0,3.0093606E0,2.0265324E0,1.8313481E0,1.1780125E0,1.00632E0,1.0202125E0],"tree_param":{"num_deleted":"0","num_feature":"8","num_nodes":"15","size_leaf_vector":"1"}},{"base_weights":[-6.531592E-3,-4.545808E-2,8.896796E-2,6.235937E-2,-1.2694153E-1,6.403211E-2,-3.3271268E-2,1.906394E-1,-5.1436182E-2,2.860413E-2,-2.0482484E-1,1.241992E-2,7.382605E-2,-9.142703E-2,-4.196904E-3],"categories":[],"categories_nodes":[],"categories_segments":[],"categories_sizes":[],"default_left":[0,0,0,0,0,0,0,0,0,0,0,0,0,0,0],"id":57,"left_children":[1,3,5,7,9,-1,-1,11,-1,-1,13,-1,-1,-1,-1],"loss_changes":[4.5976736E-2,8.413161E-2,1.1334707E-1,1.6480221E-1,1.10775344E-1,0E0,0E0,1.7266862E-2,0E0,0E0,7.622647E-2,0E0,0E0,0E0,0E0],"parents":[2147483647,0,0,1,1,2,2,3,3,4,4,7,7,10,10],"right_children":[2,4,6,8,10,-1,-1,12,-1,-1,14,-1,-1,-1,-1],"split_conditions":[8.2E1,3.31E1,8.8E1,3E1,6.4E1,6.403211E-2,-3.3271268E-2,6.5E1,-5.1436182E-2,2.860413E-2,3.2E1,1.241992E-2,7.382605E-2,-9.142703E-2,-4.196904E-3],"split_indices":[2,5,2,3,2,0,0,2,0,0,7,0,0,0,0],"split_type":[0,0,0,0,0,0,0,0,0,0,0,0,0,0,0],